<?xml version="1.0"?>
<opencv_storage>
<my_nn type_id="opencv-ml-ann-mlp">
  <layer_sizes type_id="opencv-matrix">
    <rows>1</rows>
    <cols>5</cols>
    <dt>i</dt>
    <data>
      400 150 60 30 6</data></layer_sizes>
  <activation_function>SIGMOID_SYM</activation_function>
  <f_param1>6.6666666666666663e-001</f_param1>
  <f_param2>1.7159000000000000e+000</f_param2>
  <min_val>-9.4999999999999996e-001</min_val>
  <max_val>9.4999999999999996e-001</max_val>
  <min_val1>-9.7999999999999998e-001</min_val1>
  <max_val1>9.7999999999999998e-001</max_val1>
  <training_params>
    <train_method>RPROP</train_method>
    <dw0>1.0000000000000001e-001</dw0>
    <dw_plus>1.2000000000000000e+000</dw_plus>
    <dw_minus>5.0000000000000000e-001</dw_minus>
    <dw_min>1.1920928955078125e-007</dw_min>
    <dw_max>50.</dw_max>
    <term_criteria><epsilon>9.9999997764825821e-003</epsilon>
      <iterations>1000</iterations></term_criteria></training_params>
  <input_scale>
    2.0058150029898452e-002 -3.7833263460871449e+000
    1.9511549004828682e-002 -3.7011369942114727e+000
    1.9385856357240674e-002 -3.6149413965739972e+000
    1.7834155917771165e-002 -3.2181867444333876e+000
    1.8487640241378191e-002 -3.3475597778556385e+000
    2.0549831839728225e-002 -3.7116370155537783e+000
    2.1967392302340894e-002 -3.8087523793936300e+000
    2.4588064850672959e-002 -4.1753470004783066e+000
    2.4117555162580660e-002 -3.9864518866196383e+000
    2.2827939678220319e-002 -3.8594209538966098e+000
    2.0716339955364538e-002 -3.4941663124416125e+000
    1.9717596618187051e-002 -3.2794188978373966e+000
    1.9507222967658840e-002 -3.3189356235109466e+000
    2.1173576704924771e-002 -3.6318056449005440e+000
    2.0141571239248254e-002 -3.5961422655579596e+000
    1.9178387410439680e-002 -3.5109329967574312e+000
    1.8718325209160475e-002 -3.4309572596438360e+000
    1.9531471512898812e-002 -3.5962977830750371e+000
    2.0759102866727101e-002 -3.8433774852286016e+000
    2.0647280481827863e-002 -3.8239996125806806e+000
    1.9803611605105211e-002 -3.7191773746972814e+000
    1.6232523501407237e-002 -3.1968137962495278e+000
    1.7451378260361396e-002 -3.2934397333953371e+000
    1.8346686624578189e-002 -3.2690509591274526e+000
    1.7423890069591635e-002 -2.6388091423305422e+000
    1.6351601004181593e-002 -2.0524676012696532e+000
    1.7586569322369388e-002 -1.8978008187710882e+000
    1.8221740659248309e-002 -1.8742828048847111e+000
    1.8310145646973846e-002 -1.8197278629776827e+000
    1.8053205510299770e-002 -1.7922791309299995e+000
    1.7628231024517885e-002 -1.8128662299273601e+000
    1.6992180148012473e-002 -1.7754799337640434e+000
    1.5941528406848770e-002 -1.7281806459323084e+000
    1.6148280601479770e-002 -1.8418198611998224e+000
    1.7062308241653990e-002 -2.6218401234496191e+000
    1.9390836774949891e-002 -3.3858426917382278e+000
    1.8350032248204941e-002 -3.3331327232933452e+000
    1.4021508775913214e-002 -2.4900943928519546e+000
    1.2127984812950160e-002 -2.0231650844385274e+000
    1.3897141520693553e-002 -2.3254066164574252e+000
    1.9933525281748098e-002 -3.7285807797161175e+000
    1.8004468503552296e-002 -3.4293138031057109e+000
    1.6342461317150159e-002 -2.8115863150824842e+000
    1.5902190821033588e-002 -2.2209664269824150e+000
    1.6062920753211914e-002 -1.7312232395674412e+000
    1.8504433455778905e-002 -1.5199044506543653e+000
    2.0096131621809163e-002 -1.4151875853435820e+000
    2.2055499479960841e-002 -1.6106439978440656e+000
    2.2995036983316942e-002 -1.8149261950966913e+000
    2.2096676623326435e-002 -1.8087284120195397e+000
    2.1269204607245847e-002 -1.6134755124893692e+000
    1.9748000107382591e-002 -1.4191443420451595e+000
    1.8892982248334293e-002 -1.4111365830647655e+000
    1.7388616440099914e-002 -1.4711288571501844e+000
    1.5934746339107322e-002 -1.5754469656643990e+000
    1.5247684653427599e-002 -2.0400719334137469e+000
    1.9761203772648527e-002 -3.3675450775312212e+000
    1.7170127320783098e-002 -3.0366267113754501e+000
    1.3246814091289116e-002 -2.3061319337432273e+000
    1.4053782714759551e-002 -2.4135588870016313e+000
    1.8884005782160426e-002 -3.5109594511524773e+000
    1.5785023672434961e-002 -2.7472302318979454e+000
    1.5431660643913095e-002 -2.2115872935659389e+000
    1.6859842528280863e-002 -1.7529455080038405e+000
    1.8992844828599215e-002 -1.4385520843536186e+000
    1.7544546274846917e-002 -1.6768396496359659e+000
    1.2438149051441964e-002 -1.6373987828152730e+000
    1.3073778790266723e-002 -2.0616763759170462e+000
    1.5262860995223409e-002 -2.5908137029653107e+000
    1.6663639431278784e-002 -2.8716673671855388e+000
    1.4861623332247838e-002 -2.6317716768674764e+000
    1.4019276980037616e-002 -2.2357189653179987e+000
    1.7008366925820730e-002 -1.9009261673721012e+000
    1.8762092562968870e-002 -1.3953116210970895e+000
    1.8847748495790091e-002 -1.5322375598040217e+000
    1.6601472171990986e-002 -1.5870511830089891e+000
    1.6114351069798118e-002 -2.1593951971637080e+000
    1.8734599177088911e-002 -3.1721870720060128e+000
    1.7108236672715608e-002 -3.0700092342148131e+000
    1.5227684478101437e-002 -2.6801633796949758e+000
    1.9572494904882113e-002 -3.6191003713075149e+000
    1.4821343529715475e-002 -2.2785492929070945e+000
    1.6043296018138524e-002 -1.7209907036054506e+000
    1.9283321881378906e-002 -1.5422915965036590e+000
    1.4072552373132527e-002 -1.6156130276736624e+000
    1.2319051129146332e-002 -1.8534472089887564e+000
    1.4628195337060968e-002 -2.7420442993683940e+000
    1.9447694130731063e-002 -4.0909240528313049e+000
    2.2451603624387844e-002 -4.8576557680574783e+000
    2.0984149153275934e-002 -4.3140591892831148e+000
    2.1024412313653981e-002 -4.5846712123310258e+000
    1.8156715521961780e-002 -3.8450774556187923e+000
    1.5477227135493751e-002 -2.9902464832554090e+000
    1.4463572922986839e-002 -2.2478119316103395e+000
    1.8181514115324759e-002 -1.5229053315701873e+000
    1.8041055153259149e-002 -1.4920221881225215e+000
    1.6313858271185797e-002 -1.5702940802493182e+000
    1.6189602093045374e-002 -2.4001689192570108e+000
    1.8052786877571454e-002 -3.1054565653546571e+000
    1.8448939418056996e-002 -3.3568258307111827e+000
    2.0900119753829497e-002 -3.8276229763494642e+000
    1.5328575028717786e-002 -1.8828294614005785e+000
    1.7702948639121845e-002 -1.5407378224544375e+000
    1.5576543615160164e-002 -1.7104672289525056e+000
    1.2185982178665544e-002 -1.8370822835165870e+000
    1.5103103982248598e-002 -2.8977671894299362e+000
    2.3455967708415924e-002 -5.1096550073827300e+000
    3.4322483480452574e-002 -7.8336201923340996e+000
    3.5615298847099741e-002 -8.1497372051406707e+000
    2.8464881561557288e-002 -6.1174429267614858e+000
    3.3537302949667933e-002 -7.6650757283367161e+000
    2.0034604650057596e-002 -4.2605231420072478e+000
    1.4469030919873999e-002 -2.8154790568906463e+000
    1.4081248854522525e-002 -2.5902142016054159e+000
    1.5364261420690058e-002 -2.4598411851859416e+000
    1.7426444176991903e-002 -1.4763839564456589e+000
    1.7890206544274704e-002 -1.5199199058406041e+000
    1.6140330003696111e-002 -1.7424570291005124e+000
    1.8003812753465638e-002 -3.0196962119156034e+000
    1.8055543802917504e-002 -3.1663764630020865e+000
    2.3616279167560764e-002 -4.1483580525824273e+000
    1.6594990437490464e-002 -1.8424650054829899e+000
    1.9051138653395451e-002 -1.6604631235875833e+000
    1.2390185950610342e-002 -1.7087545851079793e+000
    1.4194023836062589e-002 -1.7316285377792298e+000
    1.2482972355746630e-002 -1.5012544231477556e+000
    1.1618294062220938e-002 -1.4867948252161542e+000
    1.3540921309819232e-002 -1.9990037712749553e+000
    1.6081106331205079e-002 -2.9534751901101171e+000
    2.8207865894090155e-002 -5.8005476588420377e+000
    1.8155696032605743e-002 -3.7175549000255961e+000
    1.2435816374706145e-002 -1.8728525069507076e+000
    1.1939117299623079e-002 -1.4576236656595050e+000
    1.2695975368283303e-002 -1.5837945033678906e+000
    1.2652489379187996e-002 -1.8964759677527370e+000
    1.5759146028684095e-002 -2.1611904694829565e+000
    1.7586990941197533e-002 -1.4216588498138185e+000
    1.7507791889083964e-002 -1.6697207255652047e+000
    1.6368969327940592e-002 -2.2793179006719662e+000
    2.0108798663699318e-002 -3.4618347359190063e+000
    2.3908295651763039e-002 -4.1604359676637381e+000
    1.7666133049537066e-002 -1.8214046847700320e+000
    1.7445811573931786e-002 -1.8965940648090200e+000
    1.4365301212445624e-002 -1.9984706876281257e+000
    1.3697675828789767e-002 -1.2495960328466986e+000
    1.5583938355263701e-002 -1.3475454755406009e+000
    1.4877137579164153e-002 -1.3085219664778263e+000
    1.3305229594402494e-002 -1.0422959410325514e+000
    1.3246026285153048e-002 -1.3738897084091655e+000
    1.7972329509316758e-002 -3.0322538806905608e+000
    1.3087400578469856e-002 -1.8570044749163763e+000
    1.3694671886112482e-002 -1.1488807722009111e+000
    1.3515784773319566e-002 -1.2235416326211217e+000
    1.4494515004578280e-002 -1.2706930266028573e+000
    1.5065096306509082e-002 -1.1695686334075670e+000
    1.5098547019879532e-002 -2.1651767129403363e+000
    1.6708374606143141e-002 -1.5902382565440834e+000
    1.8771083671760409e-002 -1.5515561399135693e+000
    1.5487104986995921e-002 -1.7915575509285160e+000
    2.0145826032130870e-002 -3.5000215549135785e+000
    2.2115793039183710e-002 -3.7241345045669010e+000
    1.7510558008627823e-002 -1.7193015799963902e+000
    1.5182667969397707e-002 -1.8620749140020125e+000
    1.3619848103477297e-002 -1.9386735728067559e+000
    1.1454317040768248e-002 -1.5041740753954529e+000
    1.2262696696631046e-002 -1.9390434907878800e+000
    1.1741630041929636e-002 -1.8982886061818183e+000
    1.2073933959213802e-002 -1.4721189031763813e+000
    1.2449443460012361e-002 -1.1698760600632512e+000
    1.5686652378717674e-002 -2.3671626697764929e+000
    1.2835779357367740e-002 -1.2629065836075206e+000
    1.7379575201851124e-002 -1.6148738122257338e+000
    1.3654812629069429e-002 -2.4858484489634112e+000
    1.3540345569808369e-002 -2.3272418424430636e+000
    1.6983670744016632e-002 -1.2766904134662653e+000
    1.6160215117056651e-002 -1.7791190857676609e+000
    1.5404605725125507e-002 -1.9452338319018558e+000
    1.9098927581412843e-002 -1.4729834103199193e+000
    1.6375810855781870e-002 -1.7114188834816451e+000
    1.8046487836175691e-002 -2.8754250186016415e+000
    2.0901957811210212e-002 -3.4690698606697978e+000
    1.8474869851029294e-002 -1.7766482677189082e+000
    1.4537316411344176e-002 -1.8535946323951067e+000
    1.4064815741655200e-002 -2.3335208696390057e+000
    1.1693450203685601e-002 -1.6463156183036702e+000
    1.2009618861710199e-002 -1.6675803909591393e+000
    1.3158685384088755e-002 -1.6070486421469350e+000
    1.4991511856794428e-002 -1.2889791396035175e+000
    1.2484900530775160e-002 -1.3251883375322482e+000
    1.6339333506035243e-002 -2.3520592517262404e+000
    1.4490801942436682e-002 -1.2059375144871411e+000
    1.6284945827525706e-002 -1.7301175058941900e+000
    1.6367874092685593e-002 -3.2330948672362529e+000
    1.3764158604693901e-002 -2.5065149124756760e+000
    1.8347516137721336e-002 -1.5762707110498175e+000
    1.6346009054010745e-002 -1.3435931501828058e+000
    1.3914530798014902e-002 -1.9059376640689873e+000
    1.9001675624515102e-002 -1.4584495059562523e+000
    1.7467170210818700e-002 -1.7171531837399769e+000
    1.6007987638906023e-002 -2.3570208784562956e+000
    1.9214151603204090e-002 -3.1381584800528612e+000
    1.8968496268353143e-002 -1.7834350058636386e+000
    1.5112903044421562e-002 -1.7953000988187411e+000
    1.2960133723264863e-002 -2.2538059414420979e+000
    1.5958464675389444e-002 -2.8045453457737395e+000
    1.1486897844117704e-002 -1.6187953648381994e+000
    1.2672420978009236e-002 -1.2135639922254158e+000
    1.3616200432965875e-002 -1.1057370885928961e+000
    1.1276823718011761e-002 -1.1040347041537037e+000
    1.6731037597418282e-002 -2.2783927452997710e+000
    1.4193343675496366e-002 -1.1687053391544164e+000
    1.5197330024559563e-002 -1.5835844711412326e+000
    1.4172277661414202e-002 -2.7409819576771848e+000
    1.3085315065837532e-002 -2.3778556416355987e+000
    1.6297981568548670e-002 -1.4371414195072469e+000
    1.5680494097931069e-002 -1.1606374079173098e+000
    1.3813051639087311e-002 -1.8913366333107922e+000
    2.0341697975344117e-002 -1.5107505839598854e+000
    1.8413318520007497e-002 -1.7381073380288867e+000
    1.5772058484376694e-002 -2.2526501381275503e+000
    1.9169275241447920e-002 -3.1319162441497581e+000
    1.9159270264096920e-002 -1.8034306544410990e+000
    1.9565377321885812e-002 -1.8696908185239716e+000
    1.2851836135726626e-002 -2.1970117964799774e+000
    1.8241669973940371e-002 -3.5961410375641285e+000
    1.8032300566925227e-002 -3.4974319796587556e+000
    1.2412194389226890e-002 -1.9955844471754038e+000
    1.6027680059570920e-002 -2.5907907549427609e+000
    1.0453799181128031e-002 -1.1590922889069242e+000
    1.6487629355239560e-002 -2.3365923804617186e+000
    1.3846438325039618e-002 -1.3500897356689376e+000
    1.5863979432569526e-002 -1.4543717502479858e+000
    1.5098895920226667e-002 -2.7470525595280453e+000
    1.3778234747252840e-002 -2.3316063517067569e+000
    1.5931396577562068e-002 -1.4288322691726936e+000
    1.5893806341099739e-002 -1.2777196972303195e+000
    1.4394966806801961e-002 -1.8827757182293572e+000
    2.3659355347974604e-002 -1.7369498072480221e+000
    1.7088272060399281e-002 -1.8028382072557965e+000
    1.5971474560794671e-002 -2.3474015140673634e+000
    2.0700262436819338e-002 -3.4402600333430344e+000
    1.9195529067167930e-002 -1.8537437570641293e+000
    2.4489431215615070e-002 -1.7834154147347618e+000
    1.3115009423628613e-002 -1.9886269214407135e+000
    1.4504797801266402e-002 -2.2241916735885208e+000
    1.3990038663432861e-002 -1.8654776928225250e+000
    1.2042316448034917e-002 -1.6241490167071331e+000
    1.3368563928301788e-002 -1.9694887628462034e+000
    1.0656275099407390e-002 -1.3095766852761279e+000
    1.7014962524618815e-002 -2.8283438899878313e+000
    1.5645540901200419e-002 -2.2023317216030058e+000
    1.2392303984043986e-002 -9.7336923800641617e-001
    1.5946431850827569e-002 -2.0656341401514537e+000
    1.2993870341817895e-002 -1.6477779100331575e+000
    1.3276435756294256e-002 -1.1151413412256950e+000
    1.5800650037625354e-002 -1.5511285894398992e+000
    1.4413933622186209e-002 -1.6827299403882998e+000
    2.6042079531706067e-002 -2.1028784877975548e+000
    1.5962469176688494e-002 -1.8962698644480107e+000
    1.7011951396048400e-002 -2.6550324025062642e+000
    2.2264730510911490e-002 -3.7994928771575762e+000
    1.6756455405943598e-002 -1.8302801133927917e+000
    2.4729047896644964e-002 -1.8023785013983038e+000
    1.6047049433531173e-002 -1.6803416330711642e+000
    1.3419954081821703e-002 -2.0701781404875854e+000
    1.2190956140906074e-002 -1.4498322033784132e+000
    1.1254717820372562e-002 -1.1175598833903972e+000
    1.1086632980571783e-002 -1.5305675982148481e+000
    1.1833802732216124e-002 -1.9823385815675771e+000
    2.7153169027824654e-002 -5.6529250475315251e+000
    2.4572327611748563e-002 -4.9863487493930370e+000
    1.2432440256153322e-002 -1.6273693177685111e+000
    1.1072832510635112e-002 -1.1066717662830732e+000
    1.1297845387707568e-002 -1.0773591636806332e+000
    1.2471392121213377e-002 -1.3267885955342811e+000
    1.5502940231346843e-002 -1.8634071383743642e+000
    1.6512430379956870e-002 -1.5124400411301391e+000
    2.1320217260236200e-002 -2.0003136973070266e+000
    1.5243694650246163e-002 -1.9864354271915556e+000
    1.7696644998921773e-002 -2.8703694059221281e+000
    2.0884135172864294e-002 -3.6349928230655455e+000
    1.6303584967519259e-002 -2.1241381178875987e+000
    2.2571398771736570e-002 -1.9835543108672800e+000
    2.4529765777823325e-002 -1.7216966648774921e+000
    1.4335948098513927e-002 -1.8066076205997408e+000
    1.4674898678223700e-002 -2.5094076739762525e+000
    1.6056299652065849e-002 -2.7323508375073726e+000
    2.1320066886159263e-002 -4.2843788142574368e+000
    4.0410607439105621e-002 -9.1935338210754516e+000
    3.8643294316589548e-002 -8.6068421458020765e+000
    3.4081696454611385e-002 -7.5762085172491203e+000
    3.7667318801536870e-002 -8.4413023633032207e+000
    2.0303197828408379e-002 -3.8933351549195225e+000
    1.3409118219174575e-002 -2.1474402623868847e+000
    1.4035449631052469e-002 -2.1014629331174022e+000
    1.3638512602579060e-002 -1.5542001130141996e+000
    2.4529363584235919e-002 -1.9276052568262767e+000
    1.8615873246903756e-002 -2.0948692228709787e+000
    1.5821924892720884e-002 -2.3595212977701383e+000
    1.8383214066904838e-002 -3.1345026242048890e+000
    1.9850489138856921e-002 -3.4288609089823718e+000
    1.8599300430414325e-002 -2.9633960014130287e+000
    1.6974200824311968e-002 -1.8559135157996980e+000
    2.2947310245658277e-002 -1.8081110484907339e+000
    2.5150028668744686e-002 -1.7823487481333362e+000
    1.4651651821280578e-002 -1.7452960176961239e+000
    1.3583326632011589e-002 -2.4697731596491281e+000
    1.8156112166020404e-002 -3.7286150707035994e+000
    2.7107014261162372e-002 -5.9539949951189541e+000
    3.4463389840989060e-002 -7.5523689752286849e+000
    3.1194422628650995e-002 -6.6751874129736146e+000
    2.3573114595524587e-002 -5.1005535071620951e+000
    1.7945341391203032e-002 -3.6162005630604401e+000
    1.3927203343889508e-002 -2.3560462815021919e+000
    1.3405852800994308e-002 -1.5913147449490721e+000
    2.0040448999683463e-002 -1.6581228213394819e+000
    2.0639657290271517e-002 -2.0343308778133591e+000
    1.5962375569291344e-002 -2.1566837104992977e+000
    1.7689839291687132e-002 -2.8782424637383426e+000
    1.6115245790884018e-002 -2.7547208734091875e+000
    1.7870882824255134e-002 -3.0430112505790614e+000
    1.7606776689700326e-002 -2.8590251891531890e+000
    1.7392217097321170e-002 -2.5984231928727639e+000
    1.7624901491443242e-002 -1.8653722233727341e+000
    2.2685021002371079e-002 -1.8317646585810115e+000
    2.4847447068546039e-002 -1.7255995702976823e+000
    2.0207502634131985e-002 -1.7935817412635238e+000
    1.4693302476497177e-002 -2.0306144022519095e+000
    1.4362935545962163e-002 -2.4198973928878313e+000
    1.5775879730059693e-002 -2.7475931428368146e+000
    1.6631932047277517e-002 -2.7877104013571121e+000
    1.4250845137474587e-002 -2.3130610552389350e+000
    1.3408818551732631e-002 -1.8502768680049806e+000
    1.5023073105567259e-002 -1.5503362995001964e+000
    2.3227566123080742e-002 -1.9046257540834817e+000
    2.0639588150114234e-002 -2.0013623327412260e+000
    1.6234643591468562e-002 -2.1303729321819640e+000
    1.7789271469474382e-002 -2.7538588769289749e+000
    1.6570981872812734e-002 -2.7600083285564052e+000
    1.4622031393085929e-002 -2.3232225490868306e+000
    1.7530752383172858e-002 -2.9371336526392580e+000
    1.4736323265351292e-002 -2.2274062588140162e+000
    1.7346939677996706e-002 -2.7731542715978348e+000
    1.7442743844846519e-002 -2.6172706969462016e+000
    1.7476741670878312e-002 -1.9505087092262636e+000
    2.0555379062500472e-002 -1.8301343689781204e+000
    2.0571623234940502e-002 -1.6844781998735907e+000
    2.2618898035414722e-002 -1.6584041001368848e+000
    2.3836182179391239e-002 -1.7873578995412176e+000
    2.0300003227829880e-002 -1.6637822048504811e+000
    2.1422950644066446e-002 -1.7213820460805389e+000
    2.2890058222342389e-002 -1.7632519327064373e+000
    2.2405062399388012e-002 -1.7564900113287383e+000
    2.1672262087859571e-002 -1.8080812446643080e+000
    1.8664748512838863e-002 -2.0052904361189254e+000
    1.7144176416250639e-002 -2.3266182696232676e+000
    1.9309749320862900e-002 -2.9696953429418418e+000
    1.7751307249882539e-002 -2.8324197803820041e+000
    1.4059115811712087e-002 -2.0007170987813443e+000
    1.3606831566189515e-002 -1.9413902339377918e+000
    1.6513506334685978e-002 -2.7404286997533283e+000
    1.3852415076291719e-002 -1.8610823031229837e+000
    1.4682260400790993e-002 -2.1438072429089288e+000
    1.7735322313456717e-002 -2.8903810657477100e+000
    1.8304920804973781e-002 -2.9011387021470982e+000
    1.8002113658047339e-002 -2.4203438780849318e+000
    1.7236302395643700e-002 -1.9202784418215348e+000
    1.8585373734002170e-002 -1.8316856692591512e+000
    2.1544974320856777e-002 -1.9186281982894322e+000
    2.1440442079715630e-002 -1.9034312467814409e+000
    2.0757137590979434e-002 -1.7722567998387739e+000
    2.0917718566743734e-002 -1.8555889597230055e+000
    1.8121947653088392e-002 -1.9610111175286784e+000
    1.7309672128702751e-002 -2.1506621736624787e+000
    1.8822535320598417e-002 -2.7785995200285178e+000
    2.0535866753906236e-002 -3.2972632864451006e+000
    1.6678250408198609e-002 -2.7169367773176671e+000
    1.3631395254532160e-002 -1.8304725836571021e+000
    1.2704890803048782e-002 -1.3895737284289771e+000
    1.4220101257044504e-002 -1.9670644844837935e+000
    1.7704192189371130e-002 -2.9768674320566917e+000
    1.4006360746384047e-002 -1.9435602461971211e+000
    1.4335127732614476e-002 -2.0772241955949391e+000
    1.4929000116277069e-002 -2.3189639240317961e+000
    1.7532991807260229e-002 -2.9167047773934485e+000
    2.0004835533465600e-002 -3.3521834181756960e+000
    2.0006433755866665e-002 -3.2759788766509428e+000
    1.9472233222684678e-002 -2.8575647569463070e+000
    1.9491434273127568e-002 -2.7427939025443884e+000
    1.8571502153724884e-002 -2.6101276123962744e+000
    1.8726763358248525e-002 -2.6143400159907100e+000
    2.0227025048648602e-002 -2.8828341028664237e+000
    1.9559260624041060e-002 -2.9386767335201034e+000
    2.3467580762796345e-002 -3.8488583762983226e+000
    2.0405746280858710e-002 -3.4564897692756049e+000
    1.6004390197154113e-002 -2.6398166708476047e+000
    1.4811132763135141e-002 -2.2586314278731994e+000
    1.4058118445592401e-002 -1.8511814298221423e+000
    1.3711829864659315e-002 -1.7793657426609018e+000
    1.4294488384012840e-002 -2.0945479143463825e+000</input_scale>
  <output_scale>
    5.2631578947368418e-001 4.9999999999999994e-001
    5.2631578947368418e-001 4.9999999999999994e-001
    5.2631578947368418e-001 4.9999999999999994e-001
    5.2631578947368418e-001 4.9999999999999994e-001
    5.2631578947368418e-001 4.9999999999999994e-001
    5.2631578947368418e-001 4.9999999999999994e-001</output_scale>
  <inv_output_scale>
    1.8999999999999999e+000 -9.4999999999999996e-001
    1.8999999999999999e+000 -9.4999999999999996e-001
    1.8999999999999999e+000 -9.4999999999999996e-001
    1.8999999999999999e+000 -9.4999999999999996e-001
    1.8999999999999999e+000 -9.4999999999999996e-001
    1.8999999999999999e+000 -9.4999999999999996e-001</inv_output_scale>
  <weights>
    <_>
      -6.3424228089869125e-003 -5.2268255955296294e-001
      -1.2683866113557776e-001 7.9969663841724367e-002
      7.5620865886777661e-002 1.8360161470371711e-001
      -7.8267819453332083e-002 -3.7460194785468817e-002
      2.5753719701856848e-001 6.6874200456165569e-004
      9.0977782257867942e-002 -1.3228622016634856e-001
      -6.4569796727029574e-002 -4.0175064713462499e-001
      -5.1408512432372844e-001 -1.4328116467069296e-001
      -3.4411211351128623e-001 3.5460057888850188e-001
      7.1492160844171493e-001 4.3117078963218419e-001
      8.2550105002752970e-003 -9.2313603705342830e-003
      4.4015812397638993e-001 -2.8380035638882761e-001
      -3.5198859244174241e-001 -2.9874509912881309e-001
      1.2586616672366524e-001 -2.1915180236546253e-001
      -1.0086513086309673e-001 2.1235880189875464e-001
      -1.3048208128169256e-001 -7.7244768934651142e-001
      2.6276656641608187e-001 5.7787678302931661e-002
      -5.2808410739348718e-003 4.6750008147667510e-001
      2.4912342267458348e-001 4.0179228099461270e-002
      7.4564202667598867e-001 2.1760424195060724e-001
      -5.1274486815297636e-002 -2.7273776511118716e-002
      6.4735072996234921e-001 -3.3485113227296953e-001
      -2.9007065725020726e-002 8.0040083887320659e-002
      1.2022513913846969e-003 1.7118997157164106e-001
      -1.9436331117296959e-001 4.4662380062411848e-002
      3.4090149286508259e-001 1.4200993670086301e-001
      -3.4377324220105870e-001 2.6344866806126349e-001
      3.4659993794540420e-002 1.7583295847919664e-001
      -2.4007461030550334e-001 -1.4164270511404625e-001
      -4.3219095475775116e-001 -6.1239205087875859e-001
      2.4279366380866869e-002 1.2020853015598559e-001
      1.4507077024062778e-001 2.1229095981747725e-001
      2.5432108296790767e-001 6.1404155622706413e-001
      -1.1833328965476850e-001 5.9521382413543218e-002
      2.7850665863433816e-001 -2.4720196092970530e-002
      3.2021109883211107e-001 -9.7600256751929723e-002
      6.4612426905594822e-002 2.1315055381885148e-001
      9.7729164911704247e-002 2.6619651610258876e-001
      5.7851547782073118e-002 1.8394555858027506e-001
      -5.0130631020325209e-002 -3.4949018803288823e-001
      1.0622454541859300e-002 1.4865179006156689e-002
      1.0924118271469738e-001 9.2536940976110066e-002
      3.3006920035081912e-002 -6.3311917631910697e-001
      -3.4526983096358692e-003 -2.8290061845842535e-001
      -1.4486246060950791e-001 9.6050681584026229e-002
      6.5490752071336866e-003 -8.7998807080361091e-002
      -1.2973892536896656e-001 -1.4717456448420987e-001
      -2.6249179682878471e-001 3.3946913178869803e-002
      1.9893519430500183e-002 -1.0804240260127550e-001
      1.7666256456679261e-001 1.0486678283483365e-001
      -1.3100820794602844e-002 -4.9198372803144680e-002
      1.2686382263378123e-002 -1.0420426358087795e-001
      -2.1955437200898612e-002 -1.0233435847045801e-001
      1.0535809544714082e-001 -4.3954178493921142e-001
      -1.6458879633504758e-001 -6.5916580875560751e-002
      -4.3031765564270165e-002 2.3733859240495071e-002
      1.7431262628575914e-001 -3.3609728619553808e-001
      6.4518632365502715e-001 -2.1885424649594778e-002
      3.2017143435642575e-002 -7.7370268662813504e-002
      3.2260696169154418e-001 -6.0241006641142361e-002
      -3.2842804625173570e-003 9.3126559759325617e-003
      1.1362601616170116e-001 -2.0797885831866389e-001
      -4.5674242047464474e-002 8.1561755171077999e-002
      1.9514333811442452e-001 5.6521399876777040e-002
      4.3107342535840809e-002 -1.8881630241850342e-002
      -2.5811202177292995e-002 2.0937645753257542e-001
      -1.9737259038576749e-002 5.6015871588774260e-002
      -4.7206440955822972e-002 1.7455191951771279e-001
      -1.3891680025569603e-001 -2.0891892838769863e-001
      6.7733063086881096e-002 -1.0246266926229368e-001
      -5.0754562168705897e-001 8.8602991373406603e-002
      1.6585709237990287e-001 -6.6911425234269850e-001
      -9.3936640560883078e-002 5.9347869399241852e-002
      -5.2768103389225263e-001 -1.9950314121673313e-001
      3.2485495514068166e-002 -2.3745347310012696e-001
      2.2263914783385306e-003 -5.1769927328864185e-001
      -5.4587661900536981e-002 -6.7766941672574721e-001
      2.7715290620094469e-002 1.7594375772050042e-001
      -7.1040841642998259e-002 -3.1327355571007118e-002
      2.1992817894455993e-001 4.2024072824878023e-003
      -1.7842171454973285e-002 -1.5221206626798170e-001
      -6.1431496002125607e-002 -6.9045116947278307e-001
      -6.1121631776304397e-001 -2.4268015126042539e-001
      -3.4175361363104373e-001 3.6830519537011908e-001
      4.1015238445664182e-001 7.0593843326585537e-001
      1.1598997864363174e-001 -1.5441731645219879e-002
      6.5630363181385099e-001 -2.8540983606156078e-001
      -3.5405923451141286e-001 -3.9620878560126420e+000
      1.0207313902504107e-001 -5.9240890795675183e-001
      -1.0312518839641723e-001 3.0370281364087198e-001
      -1.3142113014985055e-001 -8.5677173966288067e-001
      7.3959228842638958e-001 5.4595405578485995e-002
      1.0164959996261606e-003 6.3595105778142336e-001
      2.5356814959690693e-001 4.1086324439206907e-002
      7.5368732693011453e-001 2.2138013328195091e-001
      -1.2915155574176496e-001 -3.0202360819039778e-002
      1.1442608792934774e+000 -7.5834299703379715e-001
      -8.7778117580917844e-002 9.2564908394001319e-002
      -2.5370825417636733e-001 1.7283154078176444e-001
      -1.9036544955040918e-001 9.3574393736310116e-002
      3.5014413927697180e-001 1.4199162719118347e-001
      -3.5418754627268303e-002 3.3140214142089991e-001
      2.2617906792560882e-002 9.8890654103767697e-002
      6.4594200721211595e-002 -1.3462310321563209e-001
      -7.3303413584254384e-001 -6.8214051226930850e-001
      8.8824794855208888e-002 4.1231597105463917e-002
      5.9955769151412271e-002 -7.5809843241397279e-002
      2.4915306961612022e-001 7.8400133887133416e-001
      -2.3384140574451470e-001 4.8160569322375564e-002
      2.7715249634196437e-001 -2.9414860743737368e-002
      2.4351429988595247e-001 -1.0596430834356281e-001
      -4.2299651111355550e-002 -9.0169415174366011e-002
      9.2620925093012174e-002 5.4300725744692302e-001
      6.0033286859552386e-002 1.4071860724290428e-001
      -4.8549935661473906e-002 -3.8191796402721906e-001
      1.7851917734489423e-002 1.9396799143598254e-002
      1.0609452914665188e-001 1.2396823241419976e-001
      -2.2398754425019367e-002 -1.0687843823496003e-001
      5.0654191886122982e-002 -2.7386529002003440e-001
      -1.1248337189416849e-001 9.2381894469946310e-002
      -1.4314823475088385e-003 -8.8445236013460632e-002
      -1.6286438236510095e-001 -1.4697088480092571e-001
      -2.4480200575251529e-001 3.7250255987089420e-002
      3.0438314248684463e-002 -1.2766986028382299e-001
      1.2080539865511733e-001 1.1712646691689492e-001
      -4.1148331929812272e-002 -6.4427838738971843e-002
      6.9897088204705610e-002 -6.2837836256328189e-002
      -1.1515977802573012e-002 7.6607733314060233e-003
      9.9814451510656058e-002 -4.4117784103348062e-001
      -1.4609759133042249e-001 3.0039719568405229e-002
      -4.1888289783117228e-003 1.8041404730910517e-002
      1.8501562550956757e-001 -2.7439410339669051e-001
      3.1278536975336668e-001 -2.6525977463734387e-002
      3.6028847699835956e-002 -7.8729325613245568e-002
      1.8508626740496692e-001 -5.2935663650745250e-002
      1.7403041447162106e-003 -3.0930063415615322e-001
      1.3440768428709385e-001 -2.4842755423725349e-001
      -4.1786895242526274e-002 1.8878236303868190e-001
      2.1986932242925300e-001 -2.3553301942523680e-001
      -8.9200333536171628e-002 -2.8494375893177600e-002
      -2.6543931517938633e-002 3.2154169745857786e-001
      -1.1189383498785739e-002 2.5555421342437932e-003
      -6.3562363433682056e-001 4.4594964092192152e-001
      -2.3780588164271643e-001 -1.8216018996435010e-001
      1.4395888158568079e-001 -1.0311448080864198e-001
      -3.2659368468027816e-001 1.7808209994146099e-001
      1.7659783054717090e-001 -6.6532842643057144e-001
      -1.1362407479138467e-001 5.7849852909502945e-002
      -5.3311681112263654e-001 -2.0127197322617219e-001
      2.8698102879828419e-001 -2.3725847831796712e-001
      -4.2337384711950608e-002 -4.3375391519183837e-001
      -2.0258602465341657e-001 -3.0136804835502823e-001
      2.2147783204481800e-002 1.7634584580144519e-001
      -7.9394625420904974e-002 -1.6722634423450242e-001
      4.2201848780738843e-001 -1.5768827175841917e-005
      6.1380639264106883e-002 -1.4870713320681300e-001
      -5.3091618816705217e-002 -5.7802368244017421e-001
      -7.7246188386811077e-001 -1.6884711038357969e-001
      -8.1708407791753357e-001 3.6838348744936283e-001
      4.0329976337356555e-001 3.6456696281902962e-001
      1.1899014550300566e-001 -7.7477688627265780e-003
      1.2823801948337638e-001 -9.4598920569249512e-002
      -2.0524949352379726e-001 -5.5262596407293318e-001
      1.9327127607847103e-001 -3.2911868577057940e-001
      -5.9696829216695335e-002 2.0935809968435573e-001
      -2.7671295785054351e-001 -8.5074103179732830e-001
      1.5978131551340780e-001 4.2029755865569493e-002
      2.0730147705758716e-002 1.0219795792890103e+000
      1.3973001047173170e-001 2.5067758313391714e-001
      6.6822048293102809e-001 1.9424862312969465e-001
      -5.3614608175029659e-002 1.8929750828850313e-002
      1.0793452926630391e+000 -3.3043897329782684e-001
      -5.2818648576386275e-002 5.6277687203332594e-002
      -1.2062479355701725e-001 1.7199754282134538e-001
      -2.5361303467555024e-001 1.0633800863517960e-001
      3.3240237690114244e-001 1.3806070459671319e-001
      4.9874980807592048e-002 1.7773883371718124e-001
      3.7664648251508351e-002 4.6885546697935571e-001
      6.3854593852269201e-002 -8.7048728978261704e-004
      -3.4600836878919405e-001 -3.2096160444117749e-001
      9.7592114685138370e-002 1.8551506946493895e-001
      4.2355128514003484e-002 -4.8932608796276450e-002
      1.0920931857168346e+000 7.7847112138290997e-001
      -1.2718493669096383e-002 5.5952607271109532e-002
      2.8869102443493089e-001 -4.2794874882398831e-002
      3.5255677850426814e-001 -9.7840336136010120e-002
      -4.1179430454647524e-002 -2.7332842580077166e-001
      5.1994163529249238e-002 2.4365084300738457e-001
      1.0814045159796193e-001 4.1393590019156640e-001
      -5.6940332886111757e-002 -4.6667849544760448e-001
      5.3723540181140929e-003 1.5919143705593511e-002
      1.1513477506620165e-001 -1.4960480781775071e-001
      -2.0733147418731235e-001 -3.8252956804481580e-001
      1.2587754280539599e-003 -2.6869690086289294e-001
      -9.2803496511695116e-002 -1.6272695461801968e-003
      6.2863792927456141e-003 -8.9197701529547924e-002
      -1.3146271352460229e-001 4.1433889997634643e-002
      6.2624643913819028e-002 3.8935788686571909e-002
      9.2221684444395324e-002 -9.6397785697262484e-002
      2.0555235101670660e-001 1.1522998390861151e-001
      -3.9862788810580398e-002 -4.9526017857071961e-002
      5.3425235118558668e-003 -9.7638954208287040e-002
      -1.9133634872692103e-002 -2.9802833684349400e-001
      1.4337954560170757e-001 -1.5610006046809038e-001
      -1.4020653982624592e-001 -5.2484428738314166e-002
      -6.9730637349363425e-003 1.7836518539822578e-002
      1.9473853244257741e-001 -9.9536709514044322e-002
      1.0106883036992555e-001 -2.8952092263026485e-002
      2.1039687229503218e-001 -6.0415799571010134e-002
      2.3075343055735001e-001 -1.5221222853924121e-001
      2.6223826494806714e-003 -3.1082325793318094e-001
      2.2983949760339420e-001 1.1644920712367030e-001
      -5.2488469447131203e-002 2.3700285466410922e-002
      1.9821289302265999e-001 -6.2210760105794169e-002
      2.2777268705684270e-001 -3.3789805998861215e-002
      -1.3810494987403196e-001 3.1388000304439834e-001
      -1.5680610100733006e-002 -6.7927069796624492e-003
      -7.6971725979151029e-002 3.9285728058154956e-001
      5.3123288110599728e-002 7.6519515189129583e-002
      6.2917867442977060e-002 -1.0388135407692765e-001
      -1.5103328753245058e+000 1.5376593403481928e-001
      1.5056679950487112e-001 -2.6098644144934158e-001
      -1.1193711122194536e-001 4.8805346520056921e-002
      -6.5332792762599090e-001 -2.1397334379708424e-001
      3.0984147024764128e-002 -2.3558772453048846e-001
      -9.5239143188271813e-002 1.0588501255058219e-001
      -1.1562054692420891e+000 -2.7013735347091378e-001
      -1.8191932359830451e-001 2.3523845014702224e-001
      -3.2150932416923067e-001 -1.8530403969845913e-001
      2.3045707926872772e-001 -7.9416154340845573e-003
      3.2876686725858514e-002 -1.4259647300267408e-001
      4.5912003539228075e-001 -1.7450329014765162e-001
      -3.6161374254892559e-001 8.9528959514941039e-002
      -8.5717215442702721e-001 -3.7197167696374385e-002
      4.0461412425041809e-001 1.3314313574784412e-001
      1.2011430134378276e-001 -1.4588321892274709e-002
      4.6045774471541651e-001 -8.2576271605496300e-004
      -5.1782457596690301e-001 -1.4574367658896730e+000
      3.0503481583276526e-001 -3.3508691801542723e-001
      -3.7119133261675132e-002 1.7729065805457409e-001
      -7.3181112248998439e-002 -2.0627032749644189e-001
      1.6127422555645687e-001 3.8282630596449124e-002
      2.1380161596340833e-001 5.0636186249334081e-001
      1.3653270424722433e-001 2.3305100977115592e-001
      7.1661522726599014e-001 1.4124867194081536e-001
      -5.2458781884269327e-002 -3.6092133023064639e-002
      4.9432236558126702e-001 -4.2015290106943542e-001
      -8.6896945370216416e-002 4.5805753396012067e-001
      4.3031533326436840e-002 1.4555002959994592e-001
      -9.7692001893721236e-002 8.0316755121814694e-003
      2.9203488354271184e-001 1.1519076883869456e-001
      -3.0894506127810323e-002 4.8969652013442705e-001
      3.2769299174417282e-001 5.2978783615538361e-001
      -2.5806441022379053e-002 -9.2347728049903960e-003
      -3.5071477031863627e-002 1.0711637031063838e-001
      -8.9035751644559041e-002 5.0522262787722683e-001
      2.2785443224208840e-001 7.0524789805560095e-002
      4.1348022142561908e-001 6.4519513678156037e-001
      -1.1729842262483745e-001 -3.2674778379990432e-001
      5.5081312073951394e-001 -9.7259225175137423e-002
      5.9350754775356696e-001 -1.0132498347329764e-001
      -3.0546108015200518e-001 -2.6083822184702266e-001
      1.6245593318391469e-002 -1.4989509195113754e-001
      1.1471636219604581e-001 4.2082407820521978e-001
      -1.2506126982516189e-001 -5.5646826154062721e+000
      7.6300068866383366e-002 -1.1607128420474781e-001
      -1.7057002398827570e-002 -4.7453323606142384e-001
      -3.1389707917086068e-001 -3.8165895129841859e-001
      1.8485829041330779e-001 2.1552733620640829e-001
      2.7582222988139715e-001 -1.1811762444574856e-002
      -1.3552127787019463e-001 -6.2716150087070122e-001
      -4.8210363058527345e-001 3.2619233873398615e-002
      1.9885090065705732e-001 3.4918440598706142e-002
      9.6456213613634378e-002 -4.2198939727055979e-001
      1.5638896987860892e-001 1.0458914940782252e-001
      -4.4958130341418344e-002 -1.5103214776115920e-001
      1.1103261025376270e-002 -7.0945650633494339e-002
      1.1173855625858575e-001 -1.9382732244686873e-001
      1.2155338815362300e-001 1.7635332262923513e-002
      2.4952568749278169e-002 -5.7262186180322174e-002
      -3.8556846968312283e-002 5.9717033269265453e-002
      6.2307057203621063e-002 -1.2879692255415479e-001
      -1.1222214063907929e-001 6.0607431450765095e-002
      2.0458315275718680e-001 1.2615260818109672e-001
      2.3067773614052414e-001 -1.8564966628938820e-001
      2.4518851794644043e-004 -3.0521814938853270e-001
      2.1877433312229019e-001 3.0008094852168915e-001
      9.5956632072417385e-003 -2.4330530970049033e-001
      2.0092398331897188e-001 -6.2034527798667340e-002
      2.9645111426597903e-001 6.0704885049435456e-002
      -1.0262572247859847e-001 7.5464345525842735e-001
      -5.5583252191199939e-001 -3.8674850908892577e-001
      -9.8959623020817900e-002 2.9500871256143233e-002
      3.0384394968594070e-001 -5.7145927414210686e-002
      2.7780079139348574e-002 4.8824302152607475e-002
      -1.4821930017811547e-001 -2.4624566489298538e-001
      1.7605277726960875e-001 -2.1474640578539356e-001
      -4.5033617924948671e-001 9.8848059134447899e-002
      -5.2488576601403047e-002 -8.8422031449690262e-003
      -4.6746103455607882e-002 -1.0576735640312622e-001
      -4.9977570800133403e-002 1.3171155104815682e-001
      -1.1608764596352865e+000 -2.9204376914323593e-001
      -1.0920564634480184e-002 1.9725595562080822e-001
      -3.1906122385711649e-001 -1.3303678994512355e-001
      2.2610490512652362e-001 -2.9577017758151115e-003
      4.0737763365255246e-002 -1.4629611597868103e-001
      4.6026729907902997e-001 -3.9831950625985024e-001
      -4.8273494096659358e-001 -1.7202039171770273e-001
      -9.0474522511394073e-001 -3.4598931697184906e-002
      4.0487986064278814e-001 2.8146528006184146e-001
      1.2540166248376980e-001 -8.7323454568658029e-003
      4.9413903141785859e-001 -3.7073656502266176e-003
      -7.0269020401301852e-001 -6.9716907134793571e-001
      4.6721989435243616e-001 -3.5524703404986502e-001
      -2.9523217746246035e-002 2.1590598777195055e-001
      -7.4841768001243786e-002 -3.0192078117207061e-001
      1.7126974732466724e-001 9.7454575746910820e-003
      2.1142440419993538e-001 4.1467929328913100e-001
      1.3596690212989901e-001 2.3569485027750267e-001
      1.0180707619771523e+000 1.2305473886167627e-001
      -4.8787698385386540e-002 1.7554690328367972e-001
      4.9771050980375070e-001 -4.2861057793997764e-001
      -8.7873766538074383e-002 9.3934600807943602e-001
      2.1064400037538672e-001 1.5178357133607479e-001
      -1.0027336683502980e-001 1.3953913632138279e-001
      3.2465170503574586e-001 4.1270897337792323e-002
      -8.4119871093458198e-002 3.7968219481644266e-001
      -4.1259852100032801e-002 9.7888842948387034e-001
      -4.3051862842134470e-003 -5.3004143521141189e-003
      5.4948746521611441e-002 1.2121562978477216e-001
      -9.2320542045007919e-002 5.0479049609273663e-001
      5.1102599833062523e-001 -7.3809513572132668e-002
      4.8368399359342157e-001 6.2058818715923580e-001
      1.1883325133747293e-001 2.1697968111515663e-002
      2.9019719143881917e-001 -8.9526804888785436e-002
      5.8471704022988014e-001 -1.0126393634123228e-001
      -2.6227012777757630e-001 -1.7236322318869457e-001
      3.8175760494340065e-002 -4.6441282523164262e-002
      1.1422045614396475e-001 4.1408840854307832e-001
      -1.4871187787734563e-001 -5.4922287511478158e+000
      7.4173719354354559e-002 -5.5493007594181229e-002
      -1.9560763543163346e-002 -4.9185790271305746e-001
      -2.4943738494946277e-001 -4.6871510119522919e-001
      1.8504826877636335e-001 2.1291783264927039e-001
      2.4583969774474612e-001 -1.4468984568151625e-002
      -3.0401331879800934e-002 -6.2371939605862314e-001
      -4.0168781724104147e-001 4.7219799675549283e-002
      4.3026895377272854e-002 4.5154808873057416e-002
      9.2279046930937969e-002 -1.2336433063199848e-001
      1.2697640883500150e-001 1.0736173640553132e-001
      -3.3516596820463880e-003 -1.0966754692265712e-001
      1.0502096208894586e-002 -1.0041181137744590e-001
      1.1216621041260763e-001 -1.9361040193927886e-001
      1.2700997420771407e-001 -1.3879678708613202e-001
      1.5814292208621974e-002 -4.0618201964994737e-002
      -3.8654822757065430e-002 6.1547165053172627e-002
      5.7894920864217984e-002 -2.5680200415352206e-001
      -2.2307060385883351e-001 -2.4493858522151354e-002
      2.1001071401376820e-001 3.4384477208004853e-002
      2.2300153673137316e-001 -1.2504396654500385e-001
      -1.3713803653181656e-003 -3.4511599636757245e-001
      2.1360379648190436e-001 3.7620151609160440e-001
      2.2128244834024976e-002 5.2366125919203935e-002
      1.9532114424146629e-001 -8.5697748186508910e-002
      2.9898450496424511e-001 1.0912998542558747e-001
      -2.7729139722607760e-001 4.5485633008130094e-001
      -5.5312866949367501e-001 -3.2267647486768242e-001
      -9.6538416082749934e-002 1.6328641697597665e-003
      3.1823908469452389e-001 -3.1474555980752057e-002
      3.3566300895338443e-002 5.2357474221856583e-002
      -1.9297742446488780e-001 -2.4672404098454137e-001
      -1.2328864930770267e-002 -2.2136916250190530e-001
      -4.5731522097916416e-001 6.5399702823863329e-002
      -5.3008167318862612e-002 9.6927231063231922e-002
      -2.4149270128364299e-002 -1.2351106487043796e-001
      -2.2395030706670535e-001 1.3540147360869234e-001
      1.0419349768536781e-002 -2.0256521369159102e-002
      8.7146792203078499e-002 1.9930000213934623e-001
      -3.2063159817822390e-001 -1.8516673025632949e-001
      2.1274308644012735e-001 -8.6036141159096784e-003
      3.9910719815363753e-002 -1.6176929762912923e-001
      3.7498967192570801e-002 -4.3570594848395083e-001
      -4.7437584049845066e-001 -1.7216875564170162e-001
      -7.8737446530871891e-001 1.6109534119662458e-001
      4.0177527105161959e-001 2.1379862895403268e-001
      -1.5614208983873920e-001 2.3687045454617233e-002
      4.9953209224059431e-001 -3.3843862631871466e-003
      -6.8586822194126140e-001 -6.0586885605122465e-001
      3.0493093249449316e-001 -1.4323068520168116e+000
      -3.2986731993112951e-002 1.7062139968324427e-001
      -5.1327342874526699e-002 -1.3823773690596464e+000
      1.0125796773836758e-001 1.2837762764413403e-002
      1.8728673587958780e-001 4.1946375175188289e-001
      1.4050168998945375e-001 7.4460636567633284e-002
      1.1440380575637128e+000 1.5834240628611335e-001
      -5.6819806217455214e-002 3.3405113825347410e-001
      1.5614180702627245e-001 -3.8751677744162594e-001
      -8.8535352734005757e-002 2.3440560999853723e-002
      9.6379028661450136e-002 1.4944173167601313e-001
      -8.1175834904014671e-002 1.3920156505143280e-001
      3.3780951666929743e-001 3.5214316098010234e-002
      -3.6973718716317555e-001 3.8114665029244676e-001
      -3.5197539669691025e-002 1.4757362891745684e-001
      1.3535434954729470e-003 -3.5265776395238539e-003
      -6.3550693309587902e-002 1.6583926010915684e-001
      -1.1645545472909183e-001 5.0118299071429562e-001
      1.9867122959587935e-001 -1.0146180837618152e-001
      2.2546184253797497e-001 9.8279161431351125e-001
      8.5401492296822284e-002 2.0321901036061154e-002
      6.6959475821079029e-002 -9.0174385043668301e-002
      9.0395694823938999e-001 -1.0181800107658134e-001
      -3.4576225171246933e-001 -8.9704233114810267e-002
      3.8680925866520784e-002 -5.8742330463020104e-002
      1.1146860728817584e-001 1.8515982473649140e-001
      -6.1466770270425491e-002 -3.1512736634058918e+000
      8.3173655580108270e-003 -5.0164733789533490e-002
      -1.8029818353613253e-002 -4.7719903572787575e-001
      -2.4696515287556542e-001 -3.7763116742644370e-001
      1.0333801005161287e-001 6.6211547611165589e-001
      1.3420234328543684e-001 -1.2187162061510163e-002
      1.7083836323354147e-002 -3.2505814450387416e-001
      -4.5725978903985465e-001 4.5933374012155977e-002
      4.6643194189716318e-002 3.8799424754174687e-002
      9.5530046151485581e-002 -1.2338116658690945e-001
      1.9894840814692263e-001 1.4221234215886908e-001
      -9.2945714245061192e-003 -1.1021514760241796e-001
      6.9785757179498826e-003 -1.0271514095318493e-001
      1.0484252699469152e-001 -4.0290801882511204e-002
      1.2336122843409762e-001 -1.4189481446327934e-001
      9.1721991874657814e-003 -3.8843074206258224e-002
      -4.3407175402812845e-002 5.8813227182877209e-002
      6.6309602685852259e-002 -4.8018321471972852e-001
      -2.6864347313928560e-002 -2.5171999578749615e-002
      1.6455102473583733e-001 1.5302201796936265e-002
      2.5864052996389758e-001 -2.6585982789271262e-001
      5.4307461196931425e-004 -7.9001053600251642e-002
      2.3324566031554841e-001 1.9126439286311178e-001
      -2.9089452719827231e-002 8.2970849893684501e-002
      2.1638795386971260e-001 -5.9470774170439514e-002
      3.0193988996453258e-001 1.9952828883656709e-001
      -3.6606549067784949e-001 4.5389031839899824e-001
      -6.6902487813911796e-002 -1.0330518703525053e-001
      -1.4899535506452490e-002 -1.5329020961578566e-001
      1.9300339195293395e-001 3.2089825183403781e-001
      1.2266210906058335e-001 2.9211682683244280e-002
      -1.8410299065327734e-001 -2.4338391894857020e-001
      -1.6536284153716874e-002 -2.1851014690426857e-001
      3.0005504401965925e-002 6.4817617413895343e-002
      -2.5804049418030922e-001 -7.2389548594298447e-003
      -2.1580694949654651e-002 -1.8723627401043078e-001
      -5.0657926709781120e-001 2.1774386388137315e-001
      6.3000328321858301e-001 8.0152551250993020e-002
      -2.1755787497965369e-002 7.1105923260131543e-002
      -3.2268946462350984e-001 -1.7931094521898081e-001
      2.1255145308710244e-001 1.9675032332046086e-001
      4.4240726107020879e-002 -1.4489196589038372e-001
      3.5514061371083303e-002 -1.4899307669448877e-001
      -9.4969435186052220e-002 1.4506137956836185e-001
      -7.4351147886364477e-001 -3.7639084740029229e-002
      4.0338745587617020e-001 2.0377977198051075e-001
      7.7016300599736881e-002 1.5872018640793444e-002
      4.5251212279939668e-001 -1.1035388210889045e-001
      -1.1400227757825766e-001 -1.9629235686830715e-001
      1.2782720920659535e-001 -3.1941076620466863e-001
      7.7245925538614341e-002 4.4830470479054647e-002
      -4.9165761217613846e-002 -8.4908417122824642e-001
      -2.0495025990252325e-002 -2.3903263754732453e-003
      3.7327536538299583e-001 4.7477363042129239e-001
      -1.0079692494734285e-001 5.3175889330443549e-001
      2.3921845115035725e-001 1.4611314011074030e+000
      -5.2489204628479329e-002 1.2650127251438263e-002
      4.3161591378521563e-001 -1.7412061035986226e-001
      -8.2553568714736764e-002 3.3398580870006428e-001
      1.2671683919960525e-001 -1.8037565280296864e-002
      2.5735864337405473e-001 -2.7712192687489962e-001
      3.5647471609964265e-001 3.8979174516733606e-002
      -4.9171676163383686e-002 3.9030146496412127e-001
      7.5835349683906053e-002 1.1570559582573112e+000
      -1.7262449737780300e-001 -3.5108475170098227e-002
      9.3534238219518687e-002 -1.2340102283962896e-001
      -1.2763721948098894e-001 1.7285511613471705e-001
      9.9572266789138136e-002 -1.1380757712525705e-001
      1.1727986258170466e-001 5.7457190194057794e-001
      -3.3449125385728434e-001 -4.1397568600746898e-001
      2.8767245282586301e-001 5.4068673445340767e-003
      9.4449175335576951e-001 -2.7600712440602326e-001
      -3.4128766307171365e-001 2.7863213114372259e-001
      -1.0968438474659380e-001 -2.5207506881665474e-002
      1.1465849772591782e-001 -7.7575716384411016e-003
      -1.6376840351385502e-001 -3.5795918592840459e-001
      -3.9497339451773070e-002 2.5634493336419600e-001
      2.9732239031968838e-002 -1.3551961083126854e-001
      -1.3492886246110940e+000 -4.8158294021938419e-001
      -8.5165588612237265e-003 1.2051711203413965e-001
      -1.7441019085128656e-001 -3.0525790475776698e-001
      9.9312937191660927e-002 -1.1812022545785417e-001
      -3.3992278845094569e-003 2.8876581844477851e-002
      1.9824159519455475e-001 -7.4404769192714437e-002
      -4.9420508232367946e-003 -8.1942379306077145e-002
      9.2101740143705230e-002 1.0033724455429839e-001
      1.6126264222773035e-001 2.5760707867488457e-002
      8.9725412377372089e-003 -9.6920421231934478e-002
      1.2138463757934886e-001 -3.3137309838268247e-001
      6.1238505742797121e-002 -1.3447605384363670e-001
      1.4301316632605598e-001 -3.3391020013155068e-002
      -1.8802419217887088e-002 1.4099540673698155e-001
      6.5416748750857914e-002 -4.8391299874497182e-002
      -3.5705485223733527e-002 -2.4705088852596539e-002
      2.9524602824454460e-001 9.3159148786434928e-002
      2.5022320813584142e-001 -2.5221466820714533e-001
      2.9631555827390227e-003 6.7795030292346820e-002
      1.3863395282705854e-001 6.5800277829229792e-001
      -8.4732256036798681e-002 3.4101238446657516e-002
      -2.7344953263581984e-001 -1.1527291753198603e-001
      3.9480484352932094e-001 2.4643691504270617e-002
      -7.6697696280686178e-001 2.3886223835743500e-001
      2.0068330461649915e-002 -8.9828424499073009e-002
      -2.4856456809327635e-002 -3.6326535142051258e-001
      1.9537176876705190e-001 5.1869964396144302e-002
      1.3850530465318761e-001 -1.6167225928558984e-001
      -2.2202748179404633e-001 -1.4360202962030280e+000
      -4.1171922959027621e-002 -5.8885861573297449e-001
      4.9822245737713461e-002 2.4681159214736851e-002
      -3.2686584865935131e-001 -1.7314654400791460e-001
      -3.0934933395167782e-002 3.6977267665334623e-001
      -1.2406015335886724e+000 -5.8528948201954992e-002
      6.5033691232700663e-001 1.9551348019694048e-001
      -1.9305724986946417e-002 4.4322656165585700e-001
      -1.8027797522146138e-001 7.8455045468273199e-002
      3.7991609265886955e-001 2.1994212953756553e-001
      1.0231894099080967e+000 -1.6512938174593057e-002
      3.4260472339374182e-002 1.1064762520524493e-001
      -2.3719844358137270e-002 1.4070800634152442e-001
      -2.7964759233192943e-001 -1.8527934022777567e-001
      2.1665484161209858e-001 4.4904272585544497e-001
      2.9096990468711126e-001 -2.8274001427751636e-002
      1.3719749123161479e-001 -6.4722183641763905e-003
      6.1485705623318752e-002 -5.1274754154156588e-001
      2.3033506244068558e-001 -2.7324340790163054e-001
      4.1459712124459029e-002 5.0215649763150662e-002
      -4.5575937523432336e-002 1.1971302949564865e-001
      8.7207296458717345e-002 7.7543777536588044e-003
      7.1556420855618241e-001 -8.0014600677733361e-002
      -1.4464720426629518e-001 3.3646700711773581e-001
      -2.0686382499250322e-001 3.7215533383290428e-001
      2.8188425838850334e-001 1.8199658076215960e-001
      2.7479352496636178e-001 -1.7001000406957517e-001
      -4.5961746430564582e-002 2.5761771143650591e-001
      7.2555893216806011e-001 -1.8141189069741867e-001
      -1.2857187288512092e-001 -6.5584314965587942e-001
      -1.3085623634705876e-001 2.1791769448512890e-001
      -1.9705289686188673e-001 7.4515052996188408e-003
      -4.2906060796962894e-002 9.9343171271152686e-001
      -3.0314024757230651e-001 4.3903800709586049e-002
      5.4370463390947210e-001 1.7941057732678756e-001
      -1.3478666824135285e-001 6.4184705975516398e-001
      2.5925896767753531e-001 1.5997199664468592e-001
      4.2308322062904030e-001 1.4195870467112572e+000
      -5.8054958614362918e-002 -2.0160009862080425e-001
      -2.1902724519876174e-001 1.1306071956485645e-002
      5.9134397633084190e-001 -8.5376131130371818e-002
      -4.3779532972068952e-001 2.5101557868854452e-001
      -1.3682003300401252e-001 -1.7035422301620259e-001
      1.6446084225118271e-001 3.0872582322568609e-001
      5.8967492821103154e-002 -2.0757571174401565e-001
      -7.9757410763269601e-002 2.6170448332604207e-001
      5.2749332332192433e-003 3.6782790996151798e-001
      -4.0504714544565994e+000 -9.4568350355097322e-002
      2.0172977872400258e-002 6.4369727265240018e-001
      -4.1091502956131776e-001 -3.7837054617802190e-001
      3.8334958485380079e-002 1.3972975904998194e-001
      -1.1342720330599328e-002 9.0692516069512501e-003
      -1.2060935896180702e-001 3.9835666218488407e-002
      -5.3952428404061406e-002 4.3198994724133856e-003
      8.4382028594571779e-002 1.6237951845368459e-001
      2.0776631816491628e-001 5.5979238136572163e-001
      1.7457664669838793e-002 5.2067287675625551e-001
      7.8215228360055428e-002 -2.2589078981592595e-001
      6.1703312211558232e-002 1.3084808308185442e-001
      -2.1703981985607035e-001 -1.6895476381436219e-002
      1.3749776889551979e-001 2.3649565097660197e-001
      1.5695020528521668e-002 8.0268911798006770e-002
      -1.0811341726640458e-001 1.4418125223153945e-002
      3.3460590848762484e-001 2.3859452893458524e-001
      8.0822327461277610e-001 -1.9862324880583482e-001
      -8.0987477325654925e-003 5.3854380248096745e-001
      2.6660148990568799e-001 6.3623002300794607e-001
      -8.0906726733833284e-002 -7.6903401182031442e-002
      -5.3309141871064482e-002 6.6575557444157390e-003
      4.8346084943101286e-001 2.1680225406854155e-002
      -2.2946061169406553e+000 2.6887021932885047e-001
      5.2782680110529348e-002 -1.0998721624319936e-001
      6.5251440404199584e-002 -3.6790055183456932e-001
      -1.5772347596272504e-001 -7.4765170984920654e-003
      -9.4020265336328263e-002 9.1237731135388744e-002
      -3.9602020107697333e-001 -3.7221677034670884e+000
      2.8589027038471299e-002 8.7442556952949543e-002
      -8.2268993396420687e-002 5.7817181053775653e-002
      -2.9183280736557365e-001 -1.8763274605370181e-001
      -6.1071562541303220e-002 1.8639585050568175e-001
      -8.4875605742034135e-002 -9.7736761600521610e-002
      1.4067541289985186e-001 1.9812339107046167e-001
      -1.4958582778731636e-002 -1.6628528470044546e-001
      -2.9731449845073997e-002 7.8340284294162343e-002
      4.8817682056234907e-001 1.6518960744456077e-001
      -9.8633855921547484e-002 -1.9465702625225234e-001
      1.0744020625783968e-001 1.0921904027746993e-001
      1.5500523276211053e-001 1.8337686259860153e-001
      -5.1049961561584067e-001 -1.8116193599587955e-002
      1.0548248827479503e-001 -5.1679184394152221e-002
      2.0196464133641207e-001 -8.9944076941652601e-002
      9.0942861094972904e-002 -3.9407505698275502e-002
      6.1075935751110998e-002 2.1936394779261906e-001
      2.3091546568822652e-001 -1.3627385850814616e-001
      1.9701169570894442e-001 5.1360498549582891e-002
      -2.6348052650697457e-001 1.1749253406117770e-001
      5.2235711189620906e-002 4.1922168512003583e-001
      -5.1591869509842528e-002 5.5074234248107132e-002
      -1.2625213369364785e-001 2.7364436569700767e-001
      -2.1497040345772339e-001 1.0517301588543395e+000
      8.2885954016247632e-001 6.6365280303386523e-002
      2.7104725454901224e-001 2.5748339554183586e-001
      1.8949025888377702e-001 2.5410225590095181e-001
      7.2543203348315466e-001 -2.8932535792859315e-001
      2.0967710110562737e-001 -3.3258632650525710e+000
      -1.4541422358945261e-001 2.4271854555675176e-001
      -1.1134051713162477e-001 1.0629615825314440e-001
      1.1108010339068428e-001 1.6684813529540095e+000
      -3.6652352826600060e-001 -1.2626603104812537e-002
      3.5453065352938506e-001 3.4113868470955024e-002
      -4.4201931557333880e-002 5.8449433698947051e-001
      2.2699785211966600e-001 1.0724996681110388e+000
      3.5269147297793352e-001 1.0999724148322886e-001
      -1.3725496220368386e-001 -2.5684911871844901e-001
      -5.7933526490378834e-002 -1.8777307707789480e-002
      7.1790719424752680e-002 4.1539626016383474e-001
      -1.2358327863251892e+000 1.7311159081462599e-001
      -2.8856803626460398e-001 -8.4204953872424926e-001
      -2.7839658576433907e-001 2.5881506853983954e-001
      -1.8699129303658857e-001 -2.5806622684376557e-001
      -3.5783674964238940e-002 3.0536293372963896e-001
      -7.8102208907079820e-002 3.8428695778700500e-001
      -7.7940726344619833e+000 -8.2349094512543672e-002
      7.8547234137983632e-002 4.4365930479920657e-002
      -1.5014566328237000e-001 -3.6535729453217886e-001
      4.6352373898358633e-002 -5.8101209364066084e-002
      -1.6504110252267546e-002 -4.3563154070014501e-002
      -6.6976296064190532e-002 -7.7667686126369137e-002
      -1.9158937212895490e-002 -6.3841791135037468e-004
      6.6359194355184850e-002 1.4287695322385974e-001
      2.4193630973741759e-001 1.0835267936947224e+000
      2.4753981815078935e-001 5.5324674094175386e-001
      3.3738392948314216e-001 -3.8322057028107392e-001
      1.3320428675595095e-001 1.3483496104189249e-001
      -2.1164038768224874e-001 -3.7713628452343707e-003
      1.3872251638173699e-001 1.6941882090427404e-001
      -1.2479939011372761e-001 3.3182391213799728e-001
      1.3156766297149308e-001 -3.4723607076606842e-002
      7.7455507280240488e-001 2.4787003097371607e-001
      8.1216404954216592e-001 -1.9609294629546031e-001
      1.3668633649479284e-001 -1.5438798217335642e-001
      -6.1791824112108387e-002 5.8928786442758307e-001
      1.8601521764910903e-001 -8.6607219626599441e-001
      -6.9959351681783988e-001 8.1210652356680443e-003
      2.3367019370569103e-001 -6.9146127982507313e-002
      -2.8612619931468188e+000 -3.5197488636245750e-002
      5.5049468027403708e-002 3.5028446825926214e-002
      1.9535098280444813e-001 -3.0172293363238045e-001
      -5.3206157385400299e-001 -5.6861281855807799e-002
      2.9889017287360031e-001 -1.0968266266137521e-002
      -2.2933503479678596e-001 -2.0524822857592624e+000
      4.1112671131336327e-002 7.9313392589928214e-002
      1.8041791840944488e-001 5.2817768254586540e-002
      -2.7512479112829541e-001 7.1540590194423867e-002
      -6.1555963431272322e-002 1.9004376406503132e-001
      -3.0346068508326640e-001 -9.9559315963565959e-002
      -4.3569617089669409e-002 2.0188880819121169e-001
      -2.3484654808027038e-002 -6.9625084357574779e-003
      -2.2505523856293813e-002 7.4360923999574946e-002
      4.6013452976611927e-002 2.7304903617376941e-001
      -1.0282038573189815e-001 -4.0746842702697189e-001
      -2.6354415275029342e-002 1.0747111475351911e-001
      -1.6761809575182959e-002 1.5202313852290839e-001
      -2.7513426033918931e-001 -1.4135799615610295e-002
      2.1284466524685103e-001 -3.2134926406922427e-002
      3.0042161023314240e-001 -1.1929543763037670e-001
      9.5509279475743669e-002 -8.5699523372820621e-002
      6.2147085533686350e-002 -2.1536165089472614e-001
      2.3350756092947816e-001 -2.7162106135773273e-001
      1.9665600196986274e-001 5.2188431685435265e-002
      -2.5660223744702532e-001 1.9801660275563046e-001
      3.8565860048262360e-002 3.4704863150397380e-001
      -1.3350539178592002e-002 5.3238314483041260e-001
      -6.3061066250769501e-002 5.6320951066504277e-001
      -3.8623088391934285e-001 1.0576099599996689e+000
      8.2907758059597958e-001 3.2149047133664810e-001
      2.7083700552825735e-001 1.0975957432580714e-001
      3.0122555384045918e-001 2.6395734028756990e-001
      7.2637989037805439e-001 -1.2711566364792704e-001
      5.7260794759454048e-001 -2.0956239267084587e-001
      -1.8780503097388540e-001 1.0792870458922357e-001
      -5.4312728005424520e-002 1.3624377949138708e-001
      1.1488188911790104e-001 1.6681428552815265e+000
      -7.4521379192108761e-001 2.6240502809399065e-003
      5.5425731013416102e-001 -2.8051296536013559e-001
      -1.6212138965331005e-001 5.1217056991668253e-001
      2.2340153248506919e-001 5.0596624751304964e-001
      2.2948321107752923e-001 4.4204091040776733e-001
      -2.5990168286526272e-001 -1.8839558499487441e-001
      1.1193002642423805e-001 -3.1955490617235245e-002
      6.9787827209964848e-002 -9.6269820121328314e-002
      -3.8301576352768002e-001 2.5074882606668314e-001
      -1.0868498174949565e-001 -3.3054390269360295e-001
      -1.8660268013419490e-001 6.8682600656406259e-002
      -1.5933970993204355e-001 -5.3473990390734616e-001
      -3.8663603326173773e-002 3.5963307659448346e-001
      -2.5796052700773428e-004 3.6807203431370344e-001
      -2.3773408311384174e+000 -3.9699353176768321e-001
      5.3869760298423122e-002 4.5041261297683793e-002
      -1.5694578925618285e-001 -3.2817598054010738e-001
      7.6176410833128844e-002 -1.4727010607875105e-001
      2.3947137155922184e-003 -4.3146905621301065e-002
      5.4831562035997616e-001 -7.5310789396329444e-002
      -1.6952865192011595e-002 -1.5237690895280758e-003
      8.2050904303771738e-002 2.5841861636608171e-001
      2.0360965502286046e-001 1.5439172935724279e+000
      1.8364927778271173e-001 5.5218777012646014e-001
      5.0521667147529059e-001 -8.6519786933956078e-001
      5.6335389997870876e-002 1.8421801687758038e-001
      -1.1104251368840692e-001 -2.2294866062422414e-002
      2.3824432603594867e-001 1.7069957525334870e-001
      -1.4710143665915892e-001 -2.9877271928007199e-002
      1.4151469258396332e-001 -3.7941100609502135e-002
      3.4050488821683478e-001 4.2221066022651765e-001
      8.0470212699197263e-001 -5.1470955144877184e-001
      4.3442969524811470e-001 -4.3021060508174204e-002
      -9.6767214325203070e-003 5.8977684185812673e-001
      2.0620419197519935e-001 -6.4352984628326615e-001
      -4.9869318023806736e-001 9.3090372879068937e-003
      2.3935811847921123e-001 -7.3975232928587584e-002
      -8.4156968397802712e-001 -2.6770405115484622e-002
      1.4584884621196871e-002 2.6130003369847839e-002
      6.2837999995069088e-002 -4.3278635460741766e-001
      -5.2991890038966649e-001 4.0034741734072329e-002
      5.3556828604583329e-001 -5.8209212512738653e-002
      -2.3394767807351291e-001 -2.5814966820626095e+000
      -1.4846066563341465e-002 7.8827412537739741e-002
      1.7795523895455165e-001 5.5210564355081954e-002
      -7.0492659816439884e-001 -4.9176921983794093e-002
      -2.4985979029003452e-001 -5.8842843763940269e-004
      -3.0371093779204661e-001 -2.0979866233849554e-002
      -1.7878833860663197e-002 1.9699157932688829e-001
      -2.1798265881927369e-002 2.5794485857236532e-001
      -8.8220654939808643e-002 7.8952876789750881e-002
      1.0686765335046738e-001 2.7038938485985980e-001
      4.9015511537727242e-002 -1.8986035385221578e-001
      -4.3937392380956786e-002 1.0534161447652662e-001
      3.0906536058044262e-003 1.5222281774549618e-001
      -3.2855258571405205e-001 -2.7208466964282259e-002
      4.0146576657454003e-001 -5.7048437686623911e-002
      2.9660641805074606e-001 -1.1613860100349147e-001
      9.0429015942184165e-002 -7.9298134944067331e-002
      6.0852593809737641e-002 -2.0823821197663339e-001
      2.2144326820639559e-001 -3.4510789858121471e-001
      1.9306614686528253e-001 4.3483978590718078e-002
      -2.7864532764596095e-001 2.0415424609031299e-001
      9.4433594817214986e-002 3.4248399173862809e-001
      -1.1204185726328289e-002 5.2927041894955951e-001
      -1.1959039545314894e-001 6.8310499291671456e-001
      -1.5534226520013089e-001 1.4625000702204689e+000
      3.2436181883163734e-001 3.2638983470052707e-001
      2.6746633341354131e-001 -1.0163624547023828e-001
      2.0167096106213042e-001 2.5805325560139136e-001
      7.2641005403971104e-001 -1.3037101427758338e-001
      5.6814548257894204e-001 -2.6539183425846696e-001
      -1.9055033700962226e-001 1.4696944362171563e-001
      -5.5479331643378448e-002 1.4285717362708508e-001
      1.1750475811529322e-001 1.8614427542900038e+000
      -3.7392198053846915e-001 -3.3127620117342327e-002
      3.5678669481500436e-001 -1.3358264345740320e-001
      -1.3049975725318733e-001 6.8047794750286639e-001
      1.0158527384540646e-001 5.1527002108048781e-001
      1.8339575348860093e-001 4.3923731047314535e-001
      -2.5606933780003710e-001 -2.0463882608563874e-001
      1.0136684756246624e-001 -3.4338710198620760e-002
      5.7360874768342907e-001 -3.0181015661001526e-001
      -2.8669126809023143e-001 2.4096580654854968e-001
      -1.1078948439559005e-001 -2.6475400616742917e-001
      -1.9439748032940443e-001 1.3396333196657434e-001
      -1.6311485907637213e-001 -2.7111443540536190e-001
      -7.6188185733825617e-002 3.8543099919124735e-001
      1.4755611729348733e-002 1.2075330259638567e-001
      -1.6640514088414142e+000 -3.2175431980392788e-001
      4.1841707754022579e-002 4.5688361009252138e-002
      -1.4659557186337863e-001 -2.6961428526244691e-001
      7.8530207747910988e-002 -1.1854966367567493e-001
      1.4236322505701837e-003 -9.6416133009718560e-002
      2.4717208574287161e-001 -7.6477947476174687e-002
      -1.6879723305025070e-002 1.3177746167397216e-003
      7.8249971383897027e-002 1.1272931508293675e-001
      3.1055962178169233e-001 6.3578142545703786e-001
      2.1791167391505742e-001 9.8805636654450121e-002
      3.4107588753495316e-001 -8.7767040811366370e-001
      5.9325445404938247e-002 4.1684960921646730e-001
      -1.0276373507546727e-001 -2.2938647646364267e-002
      2.8515667854897775e-001 1.6398848884790182e-001
      -1.0890694879453766e-001 1.3548995564276052e-002
      1.4058977232199099e-001 -1.0661760018301857e-001
      2.9590199959365404e-001 4.2701616372945650e-001
      8.0928131263333836e-001 -1.9378647444332353e-001
      4.3432546447784626e-001 1.7899368124430312e-001
      3.1121333789682637e-001 2.0851449620008716e-001
      -1.1306686328335321e-001 -1.4491363260712301e-001
      -4.9947683337875953e-001 1.0893198644924032e-002
      3.3774175239887488e-001 1.8083945008046106e-002
      -7.6592672928904881e-001 -4.7618154437228770e-002
      1.9851239824939117e-002 2.4214023736937117e-002
      2.7293147604924680e-002 -4.3244688544407772e-001
      -3.3585315597861443e-001 6.2684668386628326e-002
      8.5679731429182449e-001 -1.2345497048383433e-001
      -2.2951313811212656e-001 -3.7371874959914724e+000
      4.3542151909810915e-002 1.3556020559408394e-001
      -8.3444360473851203e-002 5.1938906683183114e-002
      -7.9168132978974692e-001 -1.0480871027005266e-001
      -2.4764250278579431e-001 -3.7539836202728528e-003
      -3.0934721791816111e-001 2.2399258205450920e-001
      9.5980906717785297e-001 1.9841896989822169e-001
      -1.7269703649059880e-002 6.5285633067174928e-002
      -3.3581343138550040e-001 -1.8069687453396546e-001
      6.4248601046083265e-002 3.0871741428833716e-001
      5.1236416567009398e-002 -4.0578162046694116e-001
      -4.2451177412468954e-002 1.0669275918397964e-001
      7.3670855604956620e-002 1.4011096877753276e-001
      -1.9348754784420880e-001 -1.8604965350048228e-001
      4.0729736985966924e-001 -5.4715706082905359e-002
      2.9825144603010512e-001 -1.2005523475557567e-001
      9.2826003014833125e-002 -7.6287630529318806e-002
      5.9290894333590520e-002 -2.1274837401374103e-001
      1.3211822156530226e-001 -3.4168261202365019e-001
      1.9741020078492047e-001 3.8519409423490955e-002
      -2.7419189846320913e-001 1.2399734973677888e-001
      -2.8091852165521510e-002 -3.4948132107493229e-002
      2.8721765964500190e-001 5.3084952414795450e-001
      -1.1881823252507583e-001 4.0890599909218489e-001
      -2.3541900820304074e-001 1.0558773934028058e+000
      2.8111678626773401e-001 3.2434043713532357e-001
      2.7685096704162199e-001 -1.7112362285575322e-001
      -8.1268239958764782e-002 2.5839063814999608e-001
      7.2322416482904439e-001 -1.3212485546904509e-001
      -1.0890685038201454e-001 -2.0996004354260589e-001
      -1.8540072802039509e-001 1.2348443321207146e-001
      -5.6502133394591279e-002 1.9557287683730395e-001
      8.8905370391527863e-002 1.6657858621721582e+000
      -1.2972288248789465e-001 -4.2960860940377411e-002
      3.6210635768459332e-001 -1.3079304247830512e-001
      -1.4894319272984996e-001 6.7719446973759545e-001
      9.3307480721760663e-002 3.5216383948660740e-001
      9.3198622942370371e-002 1.4136473137422483e+000
      -3.3128329853392818e-001 -2.1815473002439947e-001
      9.9718821845972042e-002 -2.2421749480547887e-002
      5.7143288602416487e-001 -7.3198527342375419e-002
      -1.1720836326034623e+000 2.2509267448008033e-001
      -1.0663853780140525e-001 -1.7476708993577281e-001
      -4.3843758784986801e-002 2.5114174468529138e-001
      -2.4155831018112903e-001 -3.6188265152667198e-001
      -8.2480025930032050e-002 3.8069520718096761e-001
      5.8704213124599336e-003 -1.5643449970615553e-001
      -1.6674493014168217e+000 -3.2975652258538357e-001
      8.8512680974483476e-002 4.4673724373458873e-002
      -5.1150930594663513e-001 -1.0188468953922718e+000
      8.0705805270578510e-002 -1.4925877698537240e-001
      2.8230145974194477e-003 -2.1407587552765697e-002
      2.4667068926105226e-001 -7.6461397880776008e-002
      -2.3848394086229460e-002 -8.5123873321562793e-002
      7.8897559315159849e-002 1.0148435227422666e-001
      2.4270972759680057e-001 8.0281817119773258e-001
      2.4981148670067593e-001 1.9995966215755992e-001
      4.6219923690549863e-001 -6.2558052193278679e-001
      6.2734168239555022e-002 3.4202913874476915e-001
      -1.8108119812093398e-001 -1.5246083801521131e-002
      4.1636902618844333e-002 1.6319165194306876e-001
      -1.4515980831778780e-001 3.2359299479697406e-001
      -1.0956319587886382e-001 -1.0777433193725963e-001
      3.3521504184230921e-001 3.0214544200436916e-001
      8.0905766923411526e-001 -2.4924313290391026e-001
      -1.2789871437609138e-001 3.9121367291456005e-001
      3.1319382386890104e-001 6.8453373108006899e-001
      -1.3017790488931227e-001 -1.1947804074100277e-001
      -6.9567364762231210e-001 6.0450174329612560e-003
      3.8969355663500155e-001 -7.7750491627585794e-002
      -8.3714798591649053e-001 2.4100633152183168e-001
      1.4801219035816250e-002 -1.0126615531372619e-001
      5.4882502610948999e-002 -4.4275282443087322e-001
      4.0542157478237820e-003 -2.4175594686885782e-001
      3.3829120673300589e-001 -1.5860223065978482e-001
      -2.2610088217788415e-001 -1.1886581716556583e+000
      2.9784236238764489e-002 8.1504468559950236e-002
      -8.3091162224641635e-002 4.9136433369035261e-002
      -2.8440195635291710e-001 7.4110059537166512e-002
      -5.8998197927811899e-002 5.8622802791721419e-002
      -1.6369135825230214e+000 1.1112456065245845e-001
      3.1611924531940450e-001 1.9691801447275425e-001
      -3.0676283611376174e-002 6.2741234566078996e-002
      -3.3344853391664148e-001 8.2802190641624640e-002
      2.5946982534647894e-001 1.8876485525983341e-001
      2.3302566552053117e-001 -1.9180814693333054e-001
      8.3628963377760601e-002 1.0173710231372077e-001
      6.1996504115334160e-003 2.5491476985526559e-002
      -3.2349586618359871e-001 -1.8851891543004357e-001
      3.1072332579819112e-001 2.8763484679645807e-001
      5.1160007051927103e-001 9.3679566651846069e-002
      2.3119132828911099e-001 1.2407332590103114e-002
      6.0000423603172669e-002 -4.4065149784344998e-001
      1.4192038364871859e-001 -2.7907021077568694e-001
      4.0651905865256376e-002 4.6297396047863502e-002
      -4.6874373237718037e-002 -1.4177112835154693e-001
      -2.8411779853064863e-002 9.5400054774663866e-003
      7.1180964126167212e-001 -7.4919925442015534e-002
      -1.4374973673211455e-001 6.7173941474769530e-002
      -9.3444629000520862e-002 3.3023172649277360e-001
      3.2429947158016015e-001 2.5349215373716982e-001
      2.6893811570708337e-001 -1.7950365912181387e-001
      -8.1983774137947218e-002 2.6467828550644640e-001
      1.2024365098383600e+000 -1.8252169705178092e-001
      -5.6047062620758925e-002 6.4186432379738145e-002
      -1.3422205141360974e-001 2.6293289205092177e-003
      -1.1502941388252207e-001 3.8970554162855436e-001
      -4.2371508184596653e-002 1.0009174585179279e+000
      -2.1355598623344679e-001 -4.7187383010633875e-002
      8.4375913563849958e-001 -2.8562245084846088e-001
      -1.4165425563686082e-001 4.7715408946626392e-001
      9.8479426362164266e-002 1.5384073789645031e-001
      1.2552628847641223e-001 7.8757771448827674e-001
      -1.2538186359706060e-002 -2.0239483264147087e-001
      7.9801045521768615e-002 4.9269835301699212e-003
      5.7469043148874843e-001 -8.5216960813668627e-002
      -4.4469522761325136e-001 3.7701644200783041e-001
      -1.3643831221414246e-001 3.5165100556796142e-002
      4.7978425758735246e-002 2.5971619503221727e-001
      -1.6115053434258578e-001 -3.5740826938608927e-001
      -1.7539825997394714e-002 2.8733600666463860e-001
      1.4564826278815522e-002 -3.5071618065179305e-002
      -2.1876629690776377e+000 -3.4134420033322976e-001
      4.5150465893621768e-002 3.1836792734831215e-001
      -4.1035334109665195e-001 -3.1249905836565212e-001
      -1.2122389248693319e-001 -2.7868627357973264e-001
      -2.4647511083812388e-002 2.5871156518003671e-002
      1.3778103710236958e-001 3.6876131543288136e-002
      -5.2857568721216233e-002 -8.5935685811349111e-002
      8.3500058999336380e-002 8.1043775369936594e-002
      2.0829886131486347e-001 4.2370535263464676e-001
      2.1596939602724144e-002 9.6125688193264475e-002
      1.1570188414313390e-001 -3.1140076234804309e-001
      6.7267492548745506e-002 3.3944775066855815e-001
      -7.0624784238448701e-002 -1.7648487654517719e-002
      2.1405184645992284e-001 2.3282637717353072e-001
      2.3263973213740630e-001 9.5141696057964770e-002
      -2.6157913328388845e-002 -5.0636263197773989e-003
      3.3979373264900925e-001 6.9200339310498982e-001
      2.5609249196015182e-001 -2.7215958864029455e-001
      -8.1213472164875513e-004 2.0678970167843608e-001
      2.2066339631979826e-001 6.7139723682911234e-001
      -1.0754751754281000e-001 1.5768343184451358e-002
      -1.9743591303771502e-001 1.2868790246683021e-002
      4.8192751769041220e-001 1.7699023587538328e-002
      -8.2933220671286700e-001 5.3923394940928460e-001
      1.5852519387871186e-002 -1.0443883423594776e-001
      1.1423135022166676e-001 -3.0892739970312277e-001
      -7.9762547155884905e-002 1.5061679308558278e-002
      9.2400025045141901e-002 -3.7305556794330619e-003
      -3.9699329164142577e-001 -9.7702715655188999e-001
      3.5066268381818186e-002 -1.2681099512641969e-001
      -3.0377955613938090e-001 5.2691009968198380e-002
      -5.1948604298550416e-002 -1.8483993978166774e-001
      -5.5578374331644337e-002 1.9067384599825857e-001
      -1.0744612061728670e-001 2.1716612853356596e-001
      -1.8222226993220111e-002 8.1250320599569978e-002
      -8.1171325664660177e-002 7.5874781084063231e-002
      -3.2649102951989112e-001 -1.7676776367848843e-001
      2.1496537185490527e-001 1.9541552319105712e-001
      3.5888988691240659e-002 -1.8974561620705119e-001
      8.6471083397140526e-003 1.1833489086682751e-001
      6.0566002879703658e-002 1.5769545694988975e-003
      -3.2028028117261448e-001 -4.0593181862630577e-002
      4.0424382683941373e-001 -1.4763455469911085e-001
      1.2456771240628320e-001 1.3384606197662871e-001
      1.1352062772100982e-001 -7.1103312784252193e-002
      -1.1715440465911214e-001 -1.9947024951986103e-001
      1.3495326098432456e-001 -3.1260149705665985e-001
      -1.2446079854613737e-001 4.8560844532203211e-002
      -4.8323674189908725e-002 1.8016236054629897e-001
      1.2919800762978775e-001 -1.0679950954190035e-002
      1.7146123877138172e-001 4.7598067925014209e-001
      -9.7537753237103980e-002 4.5081849467451957e-001
      2.7483933459800763e-001 1.3591418077163999e+000
      3.2324683568942586e-001 2.3291464657033162e-001
      1.1465187963541639e+000 -1.6745726169169539e-001
      -8.8589648019315403e-002 4.0812541443092781e-001
      3.2524251660569398e-001 -1.3354576996900216e-001
      -6.0863763591727349e-002 -1.0263586079241021e+000
      3.5880276645423692e-001 -8.3446232320451591e-002
      -5.5779880201768654e-002 3.8818395868802097e-001
      5.5214026695186269e-002 2.1094735579602717e+000
      -3.3188929678082574e-001 -4.2455741946941981e-002
      1.6597736515299211e+000 2.6786696289698986e-002
      -1.3691227351931973e-001 1.7293732014575475e-001
      2.5342214581110045e-001 1.5001666459249430e-001
      1.0998910414757289e-001 1.1710475119099606e-001
      -4.9003293401540894e-002 -4.5712111160506003e-001
      3.0006889300011841e-001 1.5475703501403489e-002
      9.4527791354516277e-001 -1.0218562398682778e+000
      -9.4447170474887820e-001 8.9951111610740209e-002
      -1.0986165615607095e-001 -1.6121089899833443e-001
      6.8670095479247004e-002 2.9137267734265174e-002
      -1.7570324150747288e-001 -6.6685231473531004e-001
      -1.5561115758020660e-003 2.9258200846585397e-001
      1.7884158683678944e-002 -1.3909071781542351e-001
      -1.5838061883200796e+000 -4.0314193149830158e-001
      2.9206638099978654e-002 -1.3535317001272702e-002
      -8.8139700017535327e-001 -1.8781180739106262e-001
      1.1709264390345149e-001 -2.5523300303888713e-001
      -2.4419851473896334e-001 3.1055420295582292e-002
      1.3344901805517273e-001 -9.2108492331830147e-003
      -6.2315807532062825e-003 -3.2433842264376006e-001
      8.2174740385724934e-002 9.4882388499782574e-002
      1.4664861912080190e-001 8.1074254678037666e-002
      8.1015770608591220e-003 -1.1609372515582804e-001
      1.5214070181465961e-001 -3.0888045899886180e-001
      4.7905240404903585e-002 1.5687478658281073e-001
      2.5622724731219813e-002 -3.3820940587676873e-002
      1.9712753269863537e-001 -1.2200644930757709e-001
      -4.9857590418915507e-002 9.5093298496129519e-002
      -1.0580373587402406e-001 1.3673282123779704e-004
      1.6408434921142617e-001 8.4419846772115906e-002
      2.5204329660812635e-001 -3.7601522538116033e-001
      4.7493604343081001e-003 1.5895416160784023e-001
      2.1475709852121391e-001 4.0816303906596119e-001
      -4.8337625175292470e-002 9.1459729007584388e-003
      -5.0427675442506070e-001 1.3382069187675691e-001
      3.9175758808992994e-001 2.3558322210207202e-002
      -5.2236375675020963e-001 5.4129977852527689e-001
      -1.0259580530336029e-001 -7.1516401754001133e-002
      7.7458211071258706e-002 -3.9332854531186856e-001
      1.1728775776313238e-001 1.7716162267701199e-001
      1.0192519402601774e-001 -1.2001167508447186e-001
      -4.0495911688734743e-001 -1.4445423904278669e+000
      -4.4518073258160797e-002 -7.9315232551994616e-002
      -3.5553914305747303e-001 6.7098046936718031e-002
      -5.9603731205004444e-002 -2.0802075588915098e-001
      -1.8574567016067287e-002 5.1727699088152157e-001
      -3.4552245411407684e-001 1.2786602380293408e-001
      -1.1686687972423489e-001 9.9245736484032801e-002
      -7.9385466739581273e-002 2.3228394182312564e-001
      -3.2651337602736891e-001 -1.8039731182908347e-001
      2.1541295536593005e-001 1.9081770640216780e-001
      6.7644924096884121e-002 -1.4946539807143169e-001
      1.7312021546670942e-002 -3.9221396658617436e-001
      -5.7000430279514425e-001 1.2003845729986266e-001
      -2.3752830574039629e-001 -4.3182605116728300e-002
      4.0648416838000334e-001 2.8784039048008037e-001
      -1.5684185625995575e-001 -7.8405300403875441e-003
      3.4984355023386082e-001 1.1698259701212597e-002
      -6.9880163122596417e-001 -6.1277775811915269e-001
      1.3593680097831062e-001 -3.1753676552179744e-001
      -4.6921625372827819e-002 1.7556548350860104e-001
      -1.7238173411781299e-002 -5.0760504124437389e-001
      3.9344320986737358e-001 7.7769672524490338e-002
      2.6344599333885765e-001 2.1098427503997608e-001
      1.3937635209012864e-001 4.1315246744714912e-001
      5.1970442654510030e-001 1.8285366558676036e-001
      -4.1595352008289885e-002 1.6988901899258196e-002
      4.4312847454461235e-001 -4.9707572007192130e-001
      -8.1152399840921513e-002 4.2563188847972061e-001
      1.5219793606653503e-001 1.5280514064223466e-001
      -1.0627959218346095e-001 5.8526556930212775e-002
      3.2559594610293535e-001 5.9637537481301697e-002
      -3.6888459156982240e-001 3.7781953788970141e-001
      3.2499190531591821e-001 7.5669033587707935e-001
      -1.5588707081527868e-002 -6.5922501765648678e-003
      4.3641842244434945e-002 1.6514557265126278e-001
      -9.0605625818210661e-002 5.0661181521070386e-001
      2.3602199977555488e-001 3.2860918335629036e-001
      4.1716622019424915e-001 7.1332589691395487e-001
      2.9274931472828308e-002 -3.5915456531409445e-001
      2.9624239661074236e-001 1.8828431476734818e-002
      9.1328522289816871e-001 -1.2618125772287495e-001
      -1.9893442269868181e-001 8.9842507592833187e-002
      -1.3929554077544001e-001 1.5667134653624300e-002
      1.0875710640328523e-001 1.5322884473326598e-001
      2.3470421898729263e-002 -1.9013551978403573e+000
      1.0583771269989618e-001 -5.3887361364935112e-002
      -2.0888304382104959e-002 -4.7640725927810701e-001
      -3.4216737751557197e-001 -4.1856639069177037e-001
      1.8445230159980555e-001 -4.8024711455708823e-002
      -4.4750817054827294e-002 2.3047061973183812e-002
      -3.5575104873778851e-002 -2.5058924962290063e-001
      -6.8692542122019884e-001 3.4910227031041435e-002
      2.3286599168120067e-001 4.2131406575106188e-002
      -9.4684081293944011e-002 -3.2957254712516321e-001
      9.8788560381480678e-002 7.6847317974734208e-002
      -7.7399695773634654e-003 -5.0042521773695492e-001
      1.4134044326006241e-002 -8.8075118720033430e-002
      1.1140996376502613e-001 -3.0171712043265481e-001
      8.0415603386456633e-002 5.3729316430615161e-002
      1.5009000551214779e-001 -3.9146997492080456e-002
      -3.8272602740579989e-002 5.1400934590455014e-002
      1.6640710316723972e-001 -3.3233123168319406e-001
      -1.0447402914634664e-001 -6.8906714600677765e-002
      1.9049382273528143e-001 1.2679389018909623e-001
      3.1890241752603893e-001 -4.2143914041340808e-001
      -8.9914256694016703e-003 1.5598970727373512e-002
      1.9155805284281649e-001 1.1439798577665135e-001
      -1.4388842424427801e-002 -2.3585271529338767e-001
      1.9553378186720827e-001 1.1624843482127745e-001
      4.8117569286647277e-001 5.2386016787293724e-002
      -5.1912421803466546e-001 4.5163081348916340e-001
      -1.7777921978772590e-001 -3.2542941671897874e-001
      -2.3850911534966934e-002 6.1827575930336956e-003
      1.2256769968660869e-001 -1.9098655151810051e-001
      3.1131034404924152e-002 4.4882813053515193e-002
      -1.5691629911132698e-001 -4.8502164799341979e-001
      -3.4046082303692174e-002 -5.3917859222350872e-001
      -6.9740093419363103e-002 8.9125420577686881e-002
      -6.0055573447398286e-003 -2.1197742877681985e-001
      -2.4586538795098846e-002 -1.3340800094652031e-001
      -4.0651516931681231e-002 -4.6645665655262555e-002
      -5.2547560764423829e-001 -1.3020252047652427e+000
      -8.1818018310609725e-003 2.0003420032387353e-001
      -1.0260914226062472e+000 6.9223553188179895e-002
      2.1436812389881105e-001 -3.3020329111083560e-002
      -8.6865054749661316e-002 -1.4098867824562600e-001
      -4.7920705378622086e-003 -3.9381996153298071e-001
      -5.6996258750996998e-001 -1.8853718860044594e-001
      -1.9195636128076035e+000 1.7059059159374354e-001
      1.1939696385596096e-001 4.1043904983739316e-001
      1.2060959905413580e-001 -1.3503520212162686e-002
      2.0340964067482514e-001 -1.7812940610916012e-001
      -3.4829874358955537e-001 -3.0564501791327231e-001
      1.1620284312712641e-001 -8.6925491752106232e-002
      -9.5146988636247626e-002 2.1367319704431106e-001
      -1.6844703877562602e-002 -5.5635319583475874e-002
      2.7789131554378177e-001 4.5149261227951668e-002
      1.9323196482849167e-001 5.7478856165167425e-001
      1.3803385905312873e-001 2.4353567963144064e-002
      6.0939175177324811e-001 -1.6043138283173020e-001
      -3.6185197203135497e-002 -1.9368861506259102e-002
      4.7386461412815684e-001 -4.6123511331165107e-001
      -1.0650161529803094e-001 5.9205867910098055e-002
      -1.3941994767509763e-001 3.0144733252650679e-001
      -1.5299712902650461e-001 -1.4906342697924094e-001
      3.4566892526563070e-001 6.9411932390871359e-002
      -2.4025806887338973e-002 5.8404227600030403e-002
      -3.8633853846358396e-002 1.8992635884293557e-001
      -2.4824679691521462e-001 -7.0095650133699533e-003
      5.4628424677688053e-002 -1.9581440550908300e-002
      3.5390085790486220e-001 2.8707382720080488e-001
      1.5099289003624014e-001 2.0587316941091555e-001
      2.2895113625545649e-001 5.6043662718709875e-001
      1.2478637745790147e-001 1.8288611809779167e-002
      7.0244962474107414e-002 4.8858891695758674e-002
      2.4090410895409137e-001 -1.0382460386220294e-001
      -2.6401840022231921e-001 9.4965250566121567e-002
      3.5456394990735336e-002 1.3460074831277261e-001
      6.0231849555142734e-002 5.0193399947456396e-001
      -1.2483340121323774e-001 -1.6678475403575199e+000
      1.5277873954205315e-002 -5.0119671575114988e-002
      8.7354011776614254e-002 -4.7161842466250707e-002
      2.8234796214101267e-002 -2.4103210247220597e-001
      8.8328448968849782e-002 3.0879531014321771e-002
      1.9488556161642630e-002 -1.2847465289622939e-002
      2.7614171126884529e-001 -3.2711136536189633e-001
      -1.8343869680549163e-001 -1.4821793317375345e-001
      -3.1773692972897599e-001 7.8929639589087105e-003
      -1.7796779232938556e-001 -1.0766590744183256e-001
      1.5717907140537782e-001 -1.7343525211921662e-001
      -6.5302398731366014e-003 -1.2058661194624101e-001
      1.1114376262645166e-002 -1.0085113130660187e-001
      -7.2366735930586762e-002 -2.4148211067260425e-001
      8.0357995292080167e-002 -1.7845069326240656e-001
      6.6998715434937990e-003 -5.2443698946863411e-002
      -4.2782082438089855e-002 6.2659702850508689e-002
      1.3153905137421820e-001 -2.6376592716363839e-001
      -2.1466369753480541e-001 -2.4045798478855750e-002
      1.8010246965933019e-001 -1.7803265425894055e-002
      -3.8800129296083112e-002 -2.1467238184981782e-001
      -2.6866988066147093e-002 -3.0631598738375915e-001
      4.6769135407629482e-002 -4.4207167254113638e-002
      2.5407804984724926e-002 8.3645301428238672e-002
      1.9517816577993941e-001 6.3897958692912937e-001
      4.9411418623573726e-002 -4.2976731057581305e-002
      1.3163882400078658e-001 1.9075897437604022e-001
      -6.4858289233803199e-002 -1.0946693991910683e-001
      -2.1846781136566962e-002 2.9338105357045261e-002
      3.1068367027116328e-001 5.0970792775941975e-001
      1.2452051840790804e-002 5.2688370443740196e-002
      -4.9954029401558969e-001 -4.2926749496297795e-002
      1.7522978980376305e-001 -2.2133634929177876e-001
      -1.1364473126170194e-001 5.8759235020639608e-002
      -2.5934902040149449e-001 5.2347498407088758e-002
      -4.2482388820868980e-002 -5.0399387369743760e-002
      -5.6854742902671319e-002 -5.4267858512021830e-002
      -2.2620101230165962e-001 -1.2396874779323963e+000
      -1.0630567257261837e-002 1.9887277016298688e-001
      -1.0334532349296996e+000 6.2456815752417287e-003
      2.1221917470852689e-001 -7.0423682058573765e-003
      -1.5294181326317869e-002 4.2280567764260263e-001
      1.8022600943682805e-002 -5.7683805862800830e-001
      -6.6687512697765361e-001 -1.8207670749754945e-001
      -1.7500747694709253e+000 2.1379212829335745e-001
      1.3269519881194970e-002 4.1518609833685066e-001
      1.2404660101950096e-001 -1.5403412247199873e-002
      5.6948128723513125e-001 -1.7272828551195096e-001
      -1.9825665411683457e-001 -5.3175350365371443e-001
      1.8392730873963969e-001 -3.1620511773242282e-001
      -9.4530158927234126e-002 2.1241022021918129e-001
      -2.3484276579938797e-002 -5.8045099602527857e-002
      5.1932968594545303e-001 9.0032098821240560e-005
      1.8578422778808210e-001 2.7001391965020355e-001
      1.3566526940014398e-001 -8.3143271210362843e-002
      5.0395455844610870e-001 5.2356572062133143e-002
      -4.3215388196555224e-002 -1.3980126007464573e-002
      1.6474699322334518e-001 -4.8577362358449183e-001
      -1.0313403122090094e-001 4.5549208653449226e-002
      -1.1923299949935759e-001 1.4961795612406184e-001
      -1.5587319193740642e-001 -2.2578627418952205e-001
      3.3535700349641001e-001 5.8903430115503759e-002
      -3.0034823059908972e-002 2.8527643552494752e-001
      -3.6609669118757210e-002 1.9075748713697144e-001
      -2.4473674241454343e-001 -2.8809135825059941e-004
      -1.8913576089339301e-001 1.0280675383072728e-001
      3.5130731268523502e-001 6.6515632297122962e-001
      1.4537953897198050e-001 1.5998430933505042e-001
      2.2898092781640972e-001 6.3900166174170436e-001
      4.2920824746665587e-001 2.4595283673247106e-002
      1.6543751406008081e-001 -3.5497444023612490e-002
      2.2686208961691962e-001 -1.0468569396635462e-001
      -2.6700333049831471e-001 -1.1857152521913010e-001
      3.4517900736614898e-002 1.4100053235547716e-001
      4.9403397802955828e-002 6.7467764735252589e-001
      -1.2921663078755988e-001 -1.3864176052399859e+000
      1.5376557380313070e-002 -4.8651997141914372e-002
      8.3467968446454349e-002 -7.0645744529989618e-002
      3.9386251536598166e-002 -2.3814885568494237e-001
      2.8092916380854555e-001 3.4657758878762053e-002
      3.5919655096117137e-002 -1.5196375820837799e-002
      2.6984658404361950e-001 1.5149031596876340e-002
      -4.4308356247173153e-001 -1.4133704654970106e-001
      -3.1992340719003004e-001 6.3374335249820144e-003
      1.4938647238973160e-001 -9.8627959845273783e-002
      1.2863044533004195e-001 -1.8271300554098388e-001
      -4.5672659823231918e-002 -8.0487288651595545e-002
      1.3395610440861296e-002 -4.9110908163972899e-002
      -4.0726810231633763e-002 -1.5313152702474464e-001
      8.5863539253028878e-002 -1.8108775673991431e-001
      1.2938835865420075e-002 4.1180333562148494e-002
      -3.6201130366190618e-002 6.2961025539863172e-002
      1.5345172202155780e-001 -1.4261627725174278e-001
      -2.1124185323547162e-001 6.0899981208831902e-002
      1.7431999988381913e-001 1.7344507164481066e-001
      -3.0609746040409679e-002 -1.0208037499655864e-001
      -3.0598786338517689e-002 -3.0991949353537590e-001
      9.4368702268870619e-002 4.8792147982627027e-001
      2.5577063925662842e-002 -1.1034627979374614e-002
      2.2513285540107181e-001 2.7432591420824526e-001
      4.8010375531540424e-002 -1.1002120921428519e-002
      2.1093434910557982e-001 2.9179758717974708e-001
      -6.6589097932078511e-002 -1.0700357306684129e-001
      -2.2676700946679618e-002 -9.9622698049718100e-002
      -5.8458132518081241e-002 2.3063599402016710e-001
      2.9766758420460615e-002 -1.4573495412890761e-001
      -2.2684446096173436e-001 1.1696017050408515e-001
      1.7758642203564237e-001 -2.1449689860799726e-001
      -1.1796627678572069e-001 4.5138693431453332e-002
      -2.6562860752129752e-001 -1.5228822183230356e-002
      -3.9293696522418514e-002 3.4608942615462969e-002
      -4.5123952099487996e-002 -4.3489453557801339e-001
      -1.5639333723400581e-001 -6.9775329970525890e-001
      -5.2813193407130589e-003 2.3431936248004762e-001
      -3.3724656831801220e-001 7.3339067733106625e-002
      2.1034284647246751e-001 -1.2359908933710355e-002
      -6.9998219454739542e-003 1.6531983300168876e-002
      1.0881910723711148e-002 -5.8176526572902298e-001
      -5.6936257070818908e-001 -1.7839206729390289e-001
      -7.1395677096116850e-001 1.0907857008325250e-002
      1.8991681673931574e-002 4.3154928333478443e-001
      6.0280427596703500e-003 -1.8549625422351855e-002
      4.2585542289763206e-001 -1.9429487245125970e-001
      -2.1644179623208143e-001 -6.1958490197591576e-001
      1.9100955230303315e-001 -2.4689405228604741e-001
      -1.0038179611208020e-001 2.9884844123282217e-001
      -1.4671834122066414e-002 -2.8021186824758221e-001
      5.9431726507396188e-001 4.1737666364344964e-002
      1.9447458681915944e-001 1.0193834236641208e+000
      1.3393490446995035e-001 3.0938908216208236e-002
      3.1368618368434173e-002 2.2273870588008757e-001
      1.6983682149874499e-001 3.8072924676241099e-002
      8.6934150696493528e-001 -1.9629934820660588e+000
      -1.3673964120386889e-001 -9.5364874851955987e-003
      -1.1190244426072535e-001 1.5690807862673911e-001
      -3.2534233282527975e-001 -2.3623957628830675e-001
      3.4030866109869046e-001 1.4833182833062125e-001
      5.7166589673990950e-002 1.2726556153565380e+000
      -1.4231220097870323e-001 9.0359002369462940e-002
      -2.4729531817409209e-001 2.7133460587734030e-002
      -2.3634913595660367e-001 -1.7575947238506121e-001
      9.0844186982604408e-002 1.6776463563102167e-001
      4.6082436348897235e-002 1.8064920059909462e-001
      2.2449431399304293e-001 7.8132041860258916e-001
      -2.3030856439176875e-001 4.3657895080380017e-002
      7.7153915270735701e-002 -1.4094446911767711e-001
      2.6172020310695154e-001 -1.2676690134706300e-001
      -3.0166446525096707e-001 -1.1796804837558654e-001
      2.9760454891315700e-002 4.7028430230185747e-001
      6.0259049447887458e-002 6.8649806583773121e-001
      -5.1350805883152419e-002 -1.3619377251120646e+000
      1.5393403927919541e-001 -5.2619922716097382e-002
      8.9369845744367543e-002 -4.7409686387081075e-002
      -3.1173663166549334e-002 -2.0241202755423865e-001
      3.1103464996530905e-001 -2.8098301436702433e-001
      -1.1458290955309341e-001 7.3522417815305219e-002
      2.7340020862775655e-001 1.6239819485342803e-002
      -5.3668337590669224e-001 -1.4562330604196708e-001
      -2.5413642636326406e-001 2.4160885269841970e-003
      1.1461959963307541e-001 -1.0722487464996684e-001
      1.0990274899344638e-001 -1.8156816314663601e-001
      1.1302719972885963e-001 -1.1827623630311099e-001
      1.1527945826525459e-002 -1.1911204671887071e-001
      1.0558104995238698e-001 -2.3821469201156900e-001
      7.9697913513623556e-002 -1.6097841317811068e-001
      1.3418776096569465e-002 -8.7715901190957415e-002
      -1.9144243389166746e-001 1.5998974698561437e-002
      1.2931473432941706e-001 -1.2446895703998234e-001
      -2.0642915320281208e-001 5.5251996482673101e-002
      1.8275127798183055e-001 -4.5448809839696055e-002
      -3.4477855661360572e-002 -2.6748514092598635e-001
      -3.1095149651368909e-002 -3.1023401450139526e-001
      3.9020209172734632e-002 4.8345507923379832e-001
      3.0329114553786958e-002 8.5974229802608770e-002
      2.1861897213704412e-001 1.2594675104191000e-001
      5.5884734354512335e-002 -3.5292444826207789e-002
      2.4071503370261169e-001 4.6100960779651051e-001
      -6.6764824416777530e-002 -1.0731134994560479e-001
      -1.8852126329024860e-002 3.4870589653195588e-001
      -4.1091378792452643e-002 9.3698020557286280e-002
      1.3292926416158585e-001 5.0484034300345482e-002
      -1.7439608964961370e-001 -1.8049493970850622e-001
      2.5260716688516799e-001 -3.2437287285676908e-001
      -1.1475552877939124e-001 6.0879237688739006e-002
      -2.5801909891181468e-001 -1.5609661931080199e-002
      1.3906802318383860e-001 4.8394616499881866e-002
      -4.3459470605538113e-002 -4.2901907515128368e-001
      -2.0027647215262578e-001 -6.6301914260933437e-001
      3.1316487190957407e-002 2.3866295108875854e-001
      -3.2634610454264312e-001 6.8895019667765053e-002
      2.1641401810062497e-001 2.7433890797089643e-002
      -8.7861928386908129e-003 2.9399674870280897e-003
      1.3782721265945895e-002 -5.8786861760265297e-001
      -6.1301653177847959e-001 -1.2926600061968552e-001
      -1.0325665099692112e+000 2.1948458930504391e-001
      1.1897597544119839e-001 4.1771450436583796e-001
      1.1326531056821146e-002 -1.7065553107938218e-002
      3.8552779636674883e-001 -1.7485857076524958e-001
      -3.1357016841667112e-001 -5.4363879350087418e-001
      1.0912227400814302e-001 -2.5002961267840768e-001
      -9.9191219592055957e-002 3.0087913965489144e-001
      -2.0460795442976749e-002 -2.4513896062550808e-001
      5.8837732236741203e-001 4.5639055432908041e-002
      1.8321346869794011e-001 3.9188129458999604e-001
      1.3983890841623778e-001 2.9820396327906465e-002
